digraph Tree {
0 [label="X[3] <= 0.5000\ngini = 0.129328546814\nsamples = 80180", shape="box"] ;
1 [label="X[0] <= 1.5000\ngini = 0.0933586884308\nsamples = 75638", shape="box"] ;
0 -> 1 ;
2 [label="X[4] <= 0.5000\ngini = 0.0783669697581\nsamples = 72407", shape="box"] ;
1 -> 2 ;
3 [label="X[0] <= 0.5000\ngini = 0.0691168549078\nsamples = 70390", shape="box"] ;
2 -> 3 ;
4 [label="X[1] <= 0.5632\ngini = 0.057686196\nsamples = 63209", shape="box"] ;
3 -> 4 ;
5 [label="X[2] <= 3045.5000\ngini = 0.0478836539183\nsamples = 51947", shape="box"] ;
4 -> 5 ;
6 [label="X[1] <= 0.5255\ngini = 0.07568545499\nsamples = 8326", shape="box"] ;
5 -> 6 ;
7 [label="X[2] <= 3019.5000\ngini = 0.0741317190606\nsamples = 8067", shape="box"] ;
6 -> 7 ;
8 [label="X[1] <= 0.0002\ngini = 0.0733605819559\nsamples = 7998", shape="box"] ;
7 -> 8 ;
9 [label="X[2] <= 2097.0000\ngini = 0.0970275312341\nsamples = 665", shape="box"] ;
8 -> 9 ;
10 [label="gini = 0.0696\nsamples = 443\nvalue = [ 427.   16.]", shape="box"] ;
9 -> 10 ;
11 [label="gini = 0.1490\nsamples = 222\nvalue = [ 204.   18.]", shape="box"] ;
9 -> 11 ;
12 [label="X[1] <= 0.0025\ngini = 0.0711809253916\nsamples = 7333", shape="box"] ;
8 -> 12 ;
13 [label="gini = 0.0073\nsamples = 272\nvalue = [ 271.    1.]", shape="box"] ;
12 -> 13 ;
14 [label="gini = 0.0736\nsamples = 7061\nvalue = [ 6791.   270.]", shape="box"] ;
12 -> 14 ;
15 [label="gini = 0.1588\nsamples = 69\nvalue = [ 63.   6.]", shape="box"] ;
7 -> 15 ;
16 [label="X[1] <= 0.5319\ngini = 0.122657682503\nsamples = 259", shape="box"] ;
6 -> 16 ;
17 [label="gini = 0.2408\nsamples = 50\nvalue = [ 43.   7.]", shape="box"] ;
16 -> 17 ;
18 [label="X[2] <= 1786.5000\ngini = 0.0911151301481\nsamples = 209", shape="box"] ;
16 -> 18 ;
19 [label="gini = 0.1800\nsamples = 50\nvalue = [ 45.   5.]", shape="box"] ;
18 -> 19 ;
20 [label="X[1] <= 0.5441\ngini = 0.0609153118943\nsamples = 159", shape="box"] ;
18 -> 20 ;
21 [label="gini = 0.0000\nsamples = 56\nvalue = [ 56.   0.]", shape="box"] ;
20 -> 21 ;
22 [label="gini = 0.0924\nsamples = 103\nvalue = [ 98.   5.]", shape="box"] ;
20 -> 22 ;
23 [label="X[1] <= 0.3195\ngini = 0.0424768294428\nsamples = 43621", shape="box"] ;
5 -> 23 ;
24 [label="X[2] <= 7224.5000\ngini = 0.0359463827134\nsamples = 28730", shape="box"] ;
23 -> 24 ;
25 [label="X[2] <= 3725.5000\ngini = 0.0425732412568\nsamples = 15533", shape="box"] ;
24 -> 25 ;
26 [label="X[1] <= 0.0144\ngini = 0.0574649135946\nsamples = 2533", shape="box"] ;
25 -> 26 ;
27 [label="gini = 0.0238\nsamples = 580\nvalue = [ 573.    7.]", shape="box"] ;
26 -> 27 ;
28 [label="gini = 0.0672\nsamples = 1953\nvalue = [ 1885.    68.]", shape="box"] ;
26 -> 28 ;
29 [label="X[1] <= 0.0001\ngini = 0.0396429704142\nsamples = 13000", shape="box"] ;
25 -> 29 ;
30 [label="gini = 0.0727\nsamples = 344\nvalue = [ 331.   13.]", shape="box"] ;
29 -> 30 ;
31 [label="gini = 0.0387\nsamples = 12656\nvalue = [ 12406.    250.]", shape="box"] ;
29 -> 31 ;
32 [label="X[1] <= 0.0000\ngini = 0.0280854460202\nsamples = 13197", shape="box"] ;
24 -> 32 ;
33 [label="X[2] <= 10916.5000\ngini = 0.103732897085\nsamples = 164", shape="box"] ;
32 -> 33 ;
34 [label="gini = 0.0701\nsamples = 110\nvalue = [ 106.    4.]", shape="box"] ;
33 -> 34 ;
35 [label="gini = 0.1680\nsamples = 54\nvalue = [ 49.   5.]", shape="box"] ;
33 -> 35 ;
36 [label="X[2] <= 7599.5000\ngini = 0.0270914675634\nsamples = 13033", shape="box"] ;
32 -> 36 ;
37 [label="gini = 0.0061\nsamples = 974\nvalue = [ 971.    3.]", shape="box"] ;
36 -> 37 ;
38 [label="gini = 0.0288\nsamples = 12059\nvalue = [ 11883.    176.]", shape="box"] ;
36 -> 38 ;
39 [label="X[2] <= 17569.5000\ngini = 0.0549455968582\nsamples = 14891", shape="box"] ;
23 -> 39 ;
40 [label="X[1] <= 0.3226\ngini = 0.0538684253049\nsamples = 14584", shape="box"] ;
39 -> 40 ;
41 [label="X[2] <= 8520.5000\ngini = 0.0974862909903\nsamples = 253", shape="box"] ;
40 -> 41 ;
42 [label="gini = 0.1356\nsamples = 164\nvalue = [ 152.   12.]", shape="box"] ;
41 -> 42 ;
43 [label="gini = 0.0222\nsamples = 89\nvalue = [ 88.   1.]", shape="box"] ;
41 -> 43 ;
44 [label="X[1] <= 0.5583\ngini = 0.0530782425642\nsamples = 14331", shape="box"] ;
40 -> 44 ;
45 [label="gini = 0.0536\nsamples = 14184\nvalue = [ 13793.    391.]", shape="box"] ;
44 -> 45 ;
46 [label="gini = 0.0000\nsamples = 147\nvalue = [ 147.    0.]", shape="box"] ;
44 -> 46 ;
47 [label="X[1] <= 0.4133\ngini = 0.104616494605\nsamples = 307", shape="box"] ;
39 -> 47 ;
48 [label="X[2] <= 19327.5000\ngini = 0.0543054211791\nsamples = 179", shape="box"] ;
47 -> 48 ;
49 [label="gini = 0.1284\nsamples = 58\nvalue = [ 54.   4.]", shape="box"] ;
48 -> 49 ;
50 [label="gini = 0.0164\nsamples = 121\nvalue = [ 120.    1.]", shape="box"] ;
48 -> 50 ;
51 [label="X[1] <= 0.4705\ngini = 0.169921875\nsamples = 128", shape="box"] ;
47 -> 51 ;
52 [label="gini = 0.2188\nsamples = 64\nvalue = [ 56.   8.]", shape="box"] ;
51 -> 52 ;
53 [label="gini = 0.1172\nsamples = 64\nvalue = [ 60.   4.]", shape="box"] ;
51 -> 53 ;
54 [label="X[2] <= 931.0000\ngini = 0.101510648946\nsamples = 11262", shape="box"] ;
4 -> 54 ;
55 [label="X[1] <= 1606.0000\ngini = 0.0337548152709\nsamples = 1747", shape="box"] ;
54 -> 55 ;
56 [label="X[1] <= 896.0000\ngini = 0.0263111111111\nsamples = 1350", shape="box"] ;
55 -> 56 ;
57 [label="X[1] <= 44.7500\ngini = 0.0312964327186\nsamples = 1132", shape="box"] ;
56 -> 57 ;
58 [label="X[2] <= 750.5000\ngini = 0.0193351734816\nsamples = 717", shape="box"] ;
57 -> 58 ;
59 [label="gini = 0.0077\nsamples = 518\nvalue = [ 516.    2.]", shape="box"] ;
58 -> 59 ;
60 [label="gini = 0.0490\nsamples = 199\nvalue = [ 194.    5.]", shape="box"] ;
58 -> 60 ;
61 [label="X[1] <= 130.5000\ngini = 0.051606909566\nsamples = 415", shape="box"] ;
57 -> 61 ;
62 [label="gini = 0.1097\nsamples = 103\nvalue = [ 97.   6.]", shape="box"] ;
61 -> 62 ;
63 [label="gini = 0.0315\nsamples = 312\nvalue = [ 307.    5.]", shape="box"] ;
61 -> 63 ;
64 [label="gini = 0.0000\nsamples = 218\nvalue = [ 218.    0.]", shape="box"] ;
56 -> 64 ;
65 [label="X[1] <= 2113.2500\ngini = 0.0586260936875\nsamples = 397", shape="box"] ;
55 -> 65 ;
66 [label="X[1] <= 1879.0000\ngini = 0.0920915712799\nsamples = 124", shape="box"] ;
65 -> 66 ;
67 [label="gini = 0.0526\nsamples = 74\nvalue = [ 72.   2.]", shape="box"] ;
66 -> 67 ;
68 [label="gini = 0.1472\nsamples = 50\nvalue = [ 46.   4.]", shape="box"] ;
66 -> 68 ;
69 [label="X[1] <= 2423.5000\ngini = 0.0429899770559\nsamples = 273", shape="box"] ;
65 -> 69 ;
70 [label="gini = 0.0000\nsamples = 53\nvalue = [ 53.   0.]", shape="box"] ;
69 -> 70 ;
71 [label="X[1] <= 3235.5000\ngini = 0.0530578512397\nsamples = 220", shape="box"] ;
69 -> 71 ;
72 [label="gini = 0.0783\nsamples = 98\nvalue = [ 94.   4.]", shape="box"] ;
71 -> 72 ;
73 [label="gini = 0.0322\nsamples = 122\nvalue = [ 120.    2.]", shape="box"] ;
71 -> 73 ;
74 [label="X[1] <= 1.1553\ngini = 0.113373198112\nsamples = 9515", shape="box"] ;
54 -> 74 ;
75 [label="X[2] <= 10030.0000\ngini = 0.104778221668\nsamples = 8023", shape="box"] ;
74 -> 75 ;
76 [label="X[2] <= 4148.0000\ngini = 0.0999739726588\nsamples = 7504", shape="box"] ;
75 -> 76 ;
77 [label="X[2] <= 4074.0000\ngini = 0.0867077750108\nsamples = 3589", shape="box"] ;
76 -> 77 ;
78 [label="gini = 0.0889\nsamples = 3495\nvalue = [ 3332.   163.]", shape="box"] ;
77 -> 78 ;
79 [label="gini = 0.0000\nsamples = 94\nvalue = [ 94.   0.]", shape="box"] ;
77 -> 79 ;
80 [label="X[1] <= 0.7379\ngini = 0.11194537824\nsamples = 3915", shape="box"] ;
76 -> 80 ;
81 [label="gini = 0.0981\nsamples = 2514\nvalue = [ 2384.   130.]", shape="box"] ;
80 -> 81 ;
82 [label="gini = 0.1362\nsamples = 1401\nvalue = [ 1298.   103.]", shape="box"] ;
80 -> 82 ;
83 [label="X[1] <= 0.6361\ngini = 0.17099728617\nsamples = 519", shape="box"] ;
75 -> 83 ;
84 [label="X[2] <= 12662.0000\ngini = 0.111237836395\nsamples = 203", shape="box"] ;
83 -> 84 ;
85 [label="gini = 0.0683\nsamples = 113\nvalue = [ 109.    4.]", shape="box"] ;
84 -> 85 ;
86 [label="gini = 0.1620\nsamples = 90\nvalue = [ 82.   8.]", shape="box"] ;
84 -> 86 ;
87 [label="X[2] <= 10903.0000\ngini = 0.206757731133\nsamples = 316", shape="box"] ;
83 -> 87 ;
88 [label="gini = 0.2975\nsamples = 77\nvalue = [ 63.  14.]", shape="box"] ;
87 -> 88 ;
89 [label="gini = 0.1739\nsamples = 239\nvalue = [ 216.   23.]", shape="box"] ;
87 -> 89 ;
90 [label="X[2] <= 3656.0000\ngini = 0.15797119939\nsamples = 1492", shape="box"] ;
74 -> 90 ;
91 [label="X[1] <= 1.4915\ngini = 0.115630825902\nsamples = 1055", shape="box"] ;
90 -> 91 ;
92 [label="X[2] <= 1461.5000\ngini = 0.0830191908936\nsamples = 507", shape="box"] ;
91 -> 92 ;
93 [label="gini = 0.1732\nsamples = 94\nvalue = [ 85.   9.]", shape="box"] ;
92 -> 93 ;
94 [label="gini = 0.0610\nsamples = 413\nvalue = [ 400.   13.]", shape="box"] ;
92 -> 94 ;
95 [label="X[2] <= 2413.5000\ngini = 0.14462011828\nsamples = 548", shape="box"] ;
91 -> 95 ;
96 [label="gini = 0.1194\nsamples = 392\nvalue = [ 367.   25.]", shape="box"] ;
95 -> 96 ;
97 [label="gini = 0.2041\nsamples = 156\nvalue = [ 138.   18.]", shape="box"] ;
95 -> 97 ;
98 [label="X[1] <= 1.6967\ngini = 0.250009163791\nsamples = 437", shape="box"] ;
90 -> 98 ;
99 [label="X[1] <= 1.4567\ngini = 0.292912459563\nsamples = 303", shape="box"] ;
98 -> 99 ;
100 [label="gini = 0.2674\nsamples = 239\nvalue = [ 201.   38.]", shape="box"] ;
99 -> 100 ;
101 [label="gini = 0.3750\nsamples = 64\nvalue = [ 48.  16.]", shape="box"] ;
99 -> 101 ;
102 [label="X[2] <= 6320.5000\ngini = 0.138115393183\nsamples = 134", shape="box"] ;
98 -> 102 ;
103 [label="gini = 0.1777\nsamples = 71\nvalue = [ 64.   7.]", shape="box"] ;
102 -> 103 ;
104 [label="gini = 0.0907\nsamples = 63\nvalue = [ 60.   3.]", shape="box"] ;
102 -> 104 ;
105 [label="X[2] <= 4000.5000\ngini = 0.163276805382\nsamples = 7181", shape="box"] ;
3 -> 105 ;
106 [label="X[2] <= 386.5000\ngini = 0.215978679248\nsamples = 2306", shape="box"] ;
105 -> 106 ;
107 [label="gini = 0.0000\nsamples = 113\nvalue = [ 113.    0.]", shape="box"] ;
106 -> 107 ;
108 [label="X[1] <= 0.0123\ngini = 0.225463892595\nsamples = 2193", shape="box"] ;
106 -> 108 ;
109 [label="X[1] <= 0.0040\ngini = 0.118048236096\nsamples = 127", shape="box"] ;
108 -> 109 ;
110 [label="gini = 0.1490\nsamples = 74\nvalue = [ 68.   6.]", shape="box"] ;
109 -> 110 ;
111 [label="gini = 0.0726\nsamples = 53\nvalue = [ 51.   2.]", shape="box"] ;
109 -> 111 ;
112 [label="X[1] <= 0.1356\ngini = 0.231489594589\nsamples = 2066", shape="box"] ;
108 -> 112 ;
113 [label="X[1] <= 0.1203\ngini = 0.284934221623\nsamples = 308", shape="box"] ;
112 -> 113 ;
114 [label="X[2] <= 3329.0000\ngini = 0.251186827715\nsamples = 258", shape="box"] ;
113 -> 114 ;
115 [label="gini = 0.2128\nsamples = 190\nvalue = [ 167.   23.]", shape="box"] ;
114 -> 115 ;
116 [label="gini = 0.3439\nsamples = 68\nvalue = [ 53.  15.]", shape="box"] ;
114 -> 116 ;
117 [label="gini = 0.4200\nsamples = 50\nvalue = [ 35.  15.]", shape="box"] ;
113 -> 117 ;
118 [label="X[1] <= 1.0478\ngini = 0.221516202221\nsamples = 1758", shape="box"] ;
112 -> 118 ;
119 [label="X[2] <= 1251.5000\ngini = 0.211559415045\nsamples = 1522", shape="box"] ;
118 -> 119 ;
120 [label="gini = 0.3750\nsamples = 64\nvalue = [ 48.  16.]", shape="box"] ;
119 -> 120 ;
121 [label="gini = 0.2028\nsamples = 1458\nvalue = [ 1291.   167.]", shape="box"] ;
119 -> 121 ;
122 [label="X[1] <= 1.1484\ngini = 0.281528296467\nsamples = 236", shape="box"] ;
118 -> 122 ;
123 [label="gini = 0.3848\nsamples = 50\nvalue = [ 37.  13.]", shape="box"] ;
122 -> 123 ;
124 [label="gini = 0.2482\nsamples = 186\nvalue = [ 159.   27.]", shape="box"] ;
122 -> 124 ;
125 [label="X[1] <= 0.7639\ngini = 0.136785798817\nsamples = 4875", shape="box"] ;
105 -> 125 ;
126 [label="X[2] <= 7503.0000\ngini = 0.125478407006\nsamples = 4579", shape="box"] ;
125 -> 126 ;
127 [label="X[2] <= 7287.5000\ngini = 0.143700455389\nsamples = 2464", shape="box"] ;
126 -> 127 ;
128 [label="X[1] <= 0.0051\ngini = 0.136049489697\nsamples = 2302", shape="box"] ;
127 -> 128 ;
129 [label="gini = 0.0000\nsamples = 51\nvalue = [ 51.   0.]", shape="box"] ;
128 -> 129 ;
130 [label="X[1] <= 0.4842\ngini = 0.138882151395\nsamples = 2251", shape="box"] ;
128 -> 130 ;
131 [label="gini = 0.1485\nsamples = 1721\nvalue = [ 1582.   139.]", shape="box"] ;
130 -> 131 ;
132 [label="gini = 0.1068\nsamples = 530\nvalue = [ 500.   30.]", shape="box"] ;
130 -> 132 ;
133 [label="X[1] <= 0.4103\ngini = 0.243636640756\nsamples = 162", shape="box"] ;
127 -> 133 ;
134 [label="X[2] <= 7426.5000\ngini = 0.277777777778\nsamples = 108", shape="box"] ;
133 -> 134 ;
135 [label="gini = 0.3200\nsamples = 50\nvalue = [ 40.  10.]", shape="box"] ;
134 -> 135 ;
136 [label="gini = 0.2378\nsamples = 58\nvalue = [ 50.   8.]", shape="box"] ;
134 -> 136 ;
137 [label="gini = 0.1680\nsamples = 54\nvalue = [ 49.   5.]", shape="box"] ;
133 -> 137 ;
138 [label="X[1] <= 0.3544\ngini = 0.103676430316\nsamples = 2115", shape="box"] ;
126 -> 138 ;
139 [label="X[2] <= 20791.5000\ngini = 0.080502789351\nsamples = 1309", shape="box"] ;
138 -> 139 ;
140 [label="X[1] <= 0.0275\ngini = 0.0691540976947\nsamples = 1199", shape="box"] ;
139 -> 140 ;
141 [label="gini = 0.0000\nsamples = 61\nvalue = [ 61.   0.]", shape="box"] ;
140 -> 141 ;
142 [label="gini = 0.0727\nsamples = 1138\nvalue = [ 1095.    43.]", shape="box"] ;
140 -> 142 ;
143 [label="X[2] <= 29583.5000\ngini = 0.194380165289\nsamples = 110", shape="box"] ;
139 -> 143 ;
144 [label="gini = 0.2737\nsamples = 55\nvalue = [ 46.   9.]", shape="box"] ;
143 -> 144 ;
145 [label="gini = 0.1031\nsamples = 55\nvalue = [ 52.   3.]", shape="box"] ;
143 -> 145 ;
146 [label="X[1] <= 0.3969\ngini = 0.139909118337\nsamples = 806", shape="box"] ;
138 -> 146 ;
147 [label="X[2] <= 9915.0000\ngini = 0.239611010734\nsamples = 194", shape="box"] ;
146 -> 147 ;
148 [label="gini = 0.1562\nsamples = 82\nvalue = [ 75.   7.]", shape="box"] ;
147 -> 148 ;
149 [label="gini = 0.2934\nsamples = 112\nvalue = [ 92.  20.]", shape="box"] ;
147 -> 149 ;
150 [label="X[2] <= 8147.0000\ngini = 0.104938271605\nsamples = 612", shape="box"] ;
146 -> 150 ;
151 [label="gini = 0.0179\nsamples = 111\nvalue = [ 110.    1.]", shape="box"] ;
150 -> 151 ;
152 [label="gini = 0.1231\nsamples = 501\nvalue = [ 468.   33.]", shape="box"] ;
150 -> 152 ;
153 [label="X[1] <= 1.0985\ngini = 0.289627465303\nsamples = 296", shape="box"] ;
125 -> 153 ;
154 [label="X[1] <= 0.8098\ngini = 0.243860960087\nsamples = 197", shape="box"] ;
153 -> 154 ;
155 [label="gini = 0.3436\nsamples = 59\nvalue = [ 46.  13.]", shape="box"] ;
154 -> 155 ;
156 [label="X[2] <= 6602.0000\ngini = 0.193761814745\nsamples = 138", shape="box"] ;
154 -> 156 ;
157 [label="gini = 0.1511\nsamples = 85\nvalue = [ 78.   7.]", shape="box"] ;
156 -> 157 ;
158 [label="gini = 0.2563\nsamples = 53\nvalue = [ 45.   8.]", shape="box"] ;
156 -> 158 ;
159 [label="gini = 0.3673\nsamples = 99\nvalue = [ 75.  24.]", shape="box"] ;
153 -> 159 ;
160 [label="X[4] <= 1.5000\ngini = 0.338309299069\nsamples = 2017", shape="box"] ;
2 -> 160 ;
161 [label="X[2] <= 8000.5000\ngini = 0.314015143257\nsamples = 1779", shape="box"] ;
160 -> 161 ;
162 [label="X[0] <= 0.5000\ngini = 0.336328308705\nsamples = 1407", shape="box"] ;
161 -> 162 ;
163 [label="X[1] <= 0.1057\ngini = 0.301188689196\nsamples = 942", shape="box"] ;
162 -> 163 ;
164 [label="X[2] <= 2743.0000\ngini = 0.377564034435\nsamples = 194", shape="box"] ;
163 -> 164 ;
165 [label="gini = 0.1800\nsamples = 50\nvalue = [ 45.   5.]", shape="box"] ;
164 -> 165 ;
166 [label="X[1] <= 0.0592\ngini = 0.424382716049\nsamples = 144", shape="box"] ;
164 -> 166 ;
167 [label="gini = 0.3803\nsamples = 94\nvalue = [ 70.  24.]", shape="box"] ;
166 -> 167 ;
168 [label="gini = 0.4800\nsamples = 50\nvalue = [ 30.  20.]", shape="box"] ;
166 -> 168 ;
169 [label="X[1] <= 0.5986\ngini = 0.278371557665\nsamples = 748", shape="box"] ;
163 -> 169 ;
170 [label="X[2] <= 6903.5000\ngini = 0.25340371303\nsamples = 571", shape="box"] ;
169 -> 170 ;
171 [label="X[2] <= 5436.0000\ngini = 0.240129799892\nsamples = 516", shape="box"] ;
170 -> 171 ;
172 [label="gini = 0.2743\nsamples = 390\nvalue = [ 326.   64.]", shape="box"] ;
171 -> 172 ;
173 [label="gini = 0.1189\nsamples = 126\nvalue = [ 118.    8.]", shape="box"] ;
171 -> 173 ;
174 [label="gini = 0.3610\nsamples = 55\nvalue = [ 42.  13.]", shape="box"] ;
170 -> 174 ;
175 [label="X[1] <= 0.9661\ngini = 0.349835615564\nsamples = 177", shape="box"] ;
169 -> 175 ;
176 [label="X[2] <= 3733.0000\ngini = 0.394651975275\nsamples = 122", shape="box"] ;
175 -> 176 ;
177 [label="gini = 0.4367\nsamples = 59\nvalue = [ 40.  19.]", shape="box"] ;
176 -> 177 ;
178 [label="gini = 0.3457\nsamples = 63\nvalue = [ 49.  14.]", shape="box"] ;
176 -> 178 ;
179 [label="gini = 0.2221\nsamples = 55\nvalue = [ 48.   7.]", shape="box"] ;
175 -> 179 ;
180 [label="X[1] <= 0.1658\ngini = 0.397049369869\nsamples = 465", shape="box"] ;
162 -> 180 ;
181 [label="X[2] <= 3569.5000\ngini = 0.334560263137\nsamples = 113", shape="box"] ;
180 -> 181 ;
182 [label="gini = 0.2408\nsamples = 50\nvalue = [ 43.   7.]", shape="box"] ;
181 -> 182 ;
183 [label="gini = 0.3941\nsamples = 63\nvalue = [ 46.  17.]", shape="box"] ;
181 -> 183 ;
184 [label="X[1] <= 0.2382\ngini = 0.413981792355\nsamples = 352", shape="box"] ;
180 -> 184 ;
185 [label="gini = 0.4785\nsamples = 53\nvalue = [ 32.  21.]", shape="box"] ;
184 -> 185 ;
186 [label="X[1] <= 0.3977\ngini = 0.398071609937\nsamples = 299", shape="box"] ;
184 -> 186 ;
187 [label="gini = 0.3273\nsamples = 97\nvalue = [ 77.  20.]", shape="box"] ;
186 -> 187 ;
188 [label="X[1] <= 0.4822\ngini = 0.425448485443\nsamples = 202", shape="box"] ;
186 -> 188 ;
189 [label="gini = 0.4800\nsamples = 50\nvalue = [ 30.  20.]", shape="box"] ;
188 -> 189 ;
190 [label="gini = 0.3999\nsamples = 152\nvalue = [ 110.   42.]", shape="box"] ;
188 -> 190 ;
191 [label="X[1] <= 0.1317\ngini = 0.216730257833\nsamples = 372", shape="box"] ;
161 -> 191 ;
192 [label="gini = 0.3636\nsamples = 67\nvalue = [ 51.  16.]", shape="box"] ;
191 -> 192 ;
193 [label="X[1] <= 0.3965\ngini = 0.177371674281\nsamples = 305", shape="box"] ;
191 -> 193 ;
194 [label="X[1] <= 0.2683\ngini = 0.0932333717801\nsamples = 204", shape="box"] ;
193 -> 194 ;
195 [label="X[1] <= 0.2034\ngini = 0.150247933884\nsamples = 110", shape="box"] ;
194 -> 195 ;
196 [label="gini = 0.0740\nsamples = 52\nvalue = [ 50.   2.]", shape="box"] ;
195 -> 196 ;
197 [label="gini = 0.2122\nsamples = 58\nvalue = [ 51.   7.]", shape="box"] ;
195 -> 197 ;
198 [label="gini = 0.0211\nsamples = 94\nvalue = [ 93.   1.]", shape="box"] ;
194 -> 198 ;
199 [label="X[1] <= 0.5115\ngini = 0.317615920008\nsamples = 101", shape="box"] ;
193 -> 199 ;
200 [label="gini = 0.2645\nsamples = 51\nvalue = [ 43.   8.]", shape="box"] ;
199 -> 200 ;
201 [label="gini = 0.3648\nsamples = 50\nvalue = [ 38.  12.]", shape="box"] ;
199 -> 201 ;
202 [label="X[0] <= 0.5000\ngini = 0.466068780453\nsamples = 238", shape="box"] ;
160 -> 202 ;
203 [label="X[2] <= 4630.5000\ngini = 0.415600024037\nsamples = 129", shape="box"] ;
202 -> 203 ;
204 [label="gini = 0.3820\nsamples = 70\nvalue = [ 52.  18.]", shape="box"] ;
203 -> 204 ;
205 [label="gini = 0.4481\nsamples = 59\nvalue = [ 39.  20.]", shape="box"] ;
203 -> 205 ;
206 [label="X[1] <= 0.3091\ngini = 0.496591196027\nsamples = 109", shape="box"] ;
202 -> 206 ;
207 [label="gini = 0.4767\nsamples = 51\nvalue = [ 31.  20.]", shape="box"] ;
206 -> 207 ;
208 [label="gini = 0.4994\nsamples = 58\nvalue = [ 28.  30.]", shape="box"] ;
206 -> 208 ;
209 [label="X[0] <= 3.5000\ngini = 0.358140694627\nsamples = 3231", shape="box"] ;
1 -> 209 ;
210 [label="X[1] <= 0.5022\ngini = 0.33137134201\nsamples = 2762", shape="box"] ;
209 -> 210 ;
211 [label="X[2] <= 4200.5000\ngini = 0.29085867231\nsamples = 1891", shape="box"] ;
210 -> 211 ;
212 [label="X[4] <= 0.5000\ngini = 0.385874465466\nsamples = 517", shape="box"] ;
211 -> 212 ;
213 [label="X[0] <= 2.5000\ngini = 0.358477517047\nsamples = 406", shape="box"] ;
212 -> 213 ;
214 [label="X[2] <= 3941.0000\ngini = 0.341157024793\nsamples = 330", shape="box"] ;
213 -> 214 ;
215 [label="X[2] <= 2116.5000\ngini = 0.318230968858\nsamples = 272", shape="box"] ;
214 -> 215 ;
216 [label="gini = 0.4160\nsamples = 61\nvalue = [ 43.  18.]", shape="box"] ;
215 -> 216 ;
217 [label="X[1] <= 0.3633\ngini = 0.28301251095\nsamples = 211", shape="box"] ;
215 -> 217 ;
218 [label="gini = 0.2476\nsamples = 152\nvalue = [ 130.   22.]", shape="box"] ;
217 -> 218 ;
219 [label="gini = 0.3620\nsamples = 59\nvalue = [ 45.  14.]", shape="box"] ;
217 -> 219 ;
220 [label="gini = 0.4281\nsamples = 58\nvalue = [ 40.  18.]", shape="box"] ;
214 -> 220 ;
221 [label="gini = 0.4221\nsamples = 76\nvalue = [ 53.  23.]", shape="box"] ;
213 -> 221 ;
222 [label="X[1] <= 0.2352\ngini = 0.461001542083\nsamples = 111", shape="box"] ;
212 -> 222 ;
223 [label="gini = 0.4800\nsamples = 55\nvalue = [ 33.  22.]", shape="box"] ;
222 -> 223 ;
224 [label="gini = 0.4362\nsamples = 56\nvalue = [ 38.  18.]", shape="box"] ;
222 -> 224 ;
225 [label="X[4] <= 0.5000\ngini = 0.247712243813\nsamples = 1374", shape="box"] ;
211 -> 225 ;
226 [label="X[2] <= 9808.0000\ngini = 0.223803512519\nsamples = 1145", shape="box"] ;
225 -> 226 ;
227 [label="X[0] <= 2.5000\ngini = 0.246654250285\nsamples = 812", shape="box"] ;
226 -> 227 ;
228 [label="X[1] <= 0.4374\ngini = 0.228466453765\nsamples = 593", shape="box"] ;
227 -> 228 ;
229 [label="X[1] <= 0.1712\ngini = 0.214015541231\nsamples = 517", shape="box"] ;
228 -> 229 ;
230 [label="gini = 0.2851\nsamples = 151\nvalue = [ 125.   26.]", shape="box"] ;
229 -> 230 ;
231 [label="gini = 0.1817\nsamples = 366\nvalue = [ 329.   37.]", shape="box"] ;
229 -> 231 ;
232 [label="gini = 0.3168\nsamples = 76\nvalue = [ 61.  15.]", shape="box"] ;
228 -> 232 ;
233 [label="X[1] <= 0.3462\ngini = 0.292737849503\nsamples = 219", shape="box"] ;
227 -> 233 ;
234 [label="X[1] <= 0.2017\ngini = 0.335393711368\nsamples = 122", shape="box"] ;
233 -> 234 ;
235 [label="gini = 0.2279\nsamples = 61\nvalue = [ 53.   8.]", shape="box"] ;
234 -> 235 ;
236 [label="gini = 0.4160\nsamples = 61\nvalue = [ 43.  18.]", shape="box"] ;
234 -> 236 ;
237 [label="gini = 0.2321\nsamples = 97\nvalue = [ 84.  13.]", shape="box"] ;
233 -> 237 ;
238 [label="X[0] <= 2.5000\ngini = 0.163947731515\nsamples = 333", shape="box"] ;
226 -> 238 ;
239 [label="X[1] <= 0.2184\ngini = 0.134625390219\nsamples = 248", shape="box"] ;
238 -> 239 ;
240 [label="gini = 0.0713\nsamples = 81\nvalue = [ 78.   3.]", shape="box"] ;
239 -> 240 ;
241 [label="X[1] <= 0.3454\ngini = 0.16350532468\nsamples = 167", shape="box"] ;
239 -> 241 ;
242 [label="gini = 0.2112\nsamples = 100\nvalue = [ 88.  12.]", shape="box"] ;
241 -> 242 ;
243 [label="gini = 0.0855\nsamples = 67\nvalue = [ 64.   3.]", shape="box"] ;
241 -> 243 ;
244 [label="gini = 0.2425\nsamples = 85\nvalue = [ 73.  12.]", shape="box"] ;
238 -> 244 ;
245 [label="X[2] <= 6808.0000\ngini = 0.35102305448\nsamples = 229", shape="box"] ;
225 -> 245 ;
246 [label="X[2] <= 5702.5000\ngini = 0.297520661157\nsamples = 110", shape="box"] ;
245 -> 246 ;
247 [label="gini = 0.3792\nsamples = 59\nvalue = [ 44.  15.]", shape="box"] ;
246 -> 247 ;
248 [label="gini = 0.1769\nsamples = 51\nvalue = [ 46.   5.]", shape="box"] ;
246 -> 248 ;
249 [label="X[1] <= 0.3214\ngini = 0.393192571146\nsamples = 119", shape="box"] ;
245 -> 249 ;
250 [label="gini = 0.4411\nsamples = 67\nvalue = [ 45.  22.]", shape="box"] ;
249 -> 250 ;
251 [label="gini = 0.3107\nsamples = 52\nvalue = [ 42.  10.]", shape="box"] ;
249 -> 251 ;
252 [label="X[2] <= 1166.5000\ngini = 0.404328265939\nsamples = 871", shape="box"] ;
210 -> 252 ;
253 [label="gini = 0.1189\nsamples = 63\nvalue = [ 59.   4.]", shape="box"] ;
252 -> 253 ;
254 [label="X[4] <= 0.5000\ngini = 0.418607857073\nsamples = 808", shape="box"] ;
252 -> 254 ;
255 [label="X[1] <= 0.9217\ngini = 0.394674845946\nsamples = 658", shape="box"] ;
254 -> 255 ;
256 [label="X[2] <= 7183.5000\ngini = 0.372041522491\nsamples = 510", shape="box"] ;
255 -> 256 ;
257 [label="X[2] <= 3945.5000\ngini = 0.39582013492\nsamples = 379", shape="box"] ;
256 -> 257 ;
258 [label="X[1] <= 0.6832\ngini = 0.330585876587\nsamples = 134", shape="box"] ;
257 -> 258 ;
259 [label="gini = 0.3717\nsamples = 77\nvalue = [ 58.  19.]", shape="box"] ;
258 -> 259 ;
260 [label="gini = 0.2659\nsamples = 57\nvalue = [ 48.   9.]", shape="box"] ;
258 -> 260 ;
261 [label="X[2] <= 4692.5000\ngini = 0.424822990421\nsamples = 245", shape="box"] ;
257 -> 261 ;
262 [label="gini = 0.4721\nsamples = 55\nvalue = [ 34.  21.]", shape="box"] ;
261 -> 262 ;
263 [label="gini = 0.4069\nsamples = 190\nvalue = [ 136.   54.]", shape="box"] ;
261 -> 263 ;
264 [label="X[2] <= 9991.5000\ngini = 0.289493619253\nsamples = 131", shape="box"] ;
256 -> 264 ;
265 [label="gini = 0.1862\nsamples = 77\nvalue = [ 69.   8.]", shape="box"] ;
264 -> 265 ;
266 [label="gini = 0.4012\nsamples = 54\nvalue = [ 39.  15.]", shape="box"] ;
264 -> 266 ;
267 [label="X[2] <= 3306.5000\ngini = 0.45580715851\nsamples = 148", shape="box"] ;
255 -> 267 ;
268 [label="gini = 0.3893\nsamples = 68\nvalue = [ 50.  18.]", shape="box"] ;
267 -> 268 ;
269 [label="gini = 0.4888\nsamples = 80\nvalue = [ 46.  34.]", shape="box"] ;
267 -> 269 ;
270 [label="X[1] <= 0.7928\ngini = 0.4872\nsamples = 150", shape="box"] ;
254 -> 270 ;
271 [label="gini = 0.4553\nsamples = 97\nvalue = [ 63.  34.]", shape="box"] ;
270 -> 271 ;
272 [label="gini = 0.4956\nsamples = 53\nvalue = [ 24.  29.]", shape="box"] ;
270 -> 272 ;
273 [label="X[1] <= 0.3224\ngini = 0.468883120189\nsamples = 469", shape="box"] ;
209 -> 273 ;
274 [label="X[2] <= 7203.0000\ngini = 0.401605517553\nsamples = 133", shape="box"] ;
273 -> 274 ;
275 [label="gini = 0.4621\nsamples = 69\nvalue = [ 44.  25.]", shape="box"] ;
274 -> 275 ;
276 [label="gini = 0.3047\nsamples = 64\nvalue = [ 52.  12.]", shape="box"] ;
274 -> 276 ;
277 [label="X[4] <= 0.5000\ngini = 0.4851013322\nsamples = 336", shape="box"] ;
273 -> 277 ;
278 [label="X[2] <= 7683.5000\ngini = 0.471243422534\nsamples = 221", shape="box"] ;
277 -> 278 ;
279 [label="X[2] <= 5053.5000\ngini = 0.451698319942\nsamples = 148", shape="box"] ;
278 -> 279 ;
280 [label="gini = 0.4745\nsamples = 93\nvalue = [ 57.  36.]", shape="box"] ;
279 -> 280 ;
281 [label="gini = 0.3967\nsamples = 55\nvalue = [ 40.  15.]", shape="box"] ;
279 -> 281 ;
282 [label="gini = 0.4954\nsamples = 73\nvalue = [ 40.  33.]", shape="box"] ;
278 -> 282 ;
283 [label="X[2] <= 5225.0000\ngini = 0.499054820416\nsamples = 115", shape="box"] ;
277 -> 283 ;
284 [label="gini = 0.4966\nsamples = 61\nvalue = [ 28.  33.]", shape="box"] ;
283 -> 284 ;
285 [label="gini = 0.4829\nsamples = 54\nvalue = [ 32.  22.]", shape="box"] ;
283 -> 285 ;
286 [label="X[3] <= 1.5000\ngini = 0.483543776846\nsamples = 4542", shape="box"] ;
0 -> 286 ;
287 [label="X[4] <= 0.5000\ngini = 0.448357369521\nsamples = 2956", shape="box"] ;
286 -> 287 ;
288 [label="X[0] <= 1.5000\ngini = 0.406982097573\nsamples = 2184", shape="box"] ;
287 -> 288 ;
289 [label="X[0] <= 0.5000\ngini = 0.378736295235\nsamples = 1793", shape="box"] ;
288 -> 289 ;
290 [label="X[2] <= 4602.0000\ngini = 0.357693709671\nsamples = 1269", shape="box"] ;
289 -> 290 ;
291 [label="X[2] <= 3922.0000\ngini = 0.390305027084\nsamples = 696", shape="box"] ;
290 -> 291 ;
292 [label="X[1] <= 0.9739\ngini = 0.368201586656\nsamples = 559", shape="box"] ;
291 -> 292 ;
293 [label="X[2] <= 1837.0000\ngini = 0.380835761672\nsamples = 508", shape="box"] ;
292 -> 293 ;
294 [label="X[1] <= 0.0455\ngini = 0.442545245619\nsamples = 118", shape="box"] ;
293 -> 294 ;
295 [label="gini = 0.4800\nsamples = 50\nvalue = [ 30.  20.]", shape="box"] ;
294 -> 295 ;
296 [label="gini = 0.4027\nsamples = 68\nvalue = [ 49.  19.]", shape="box"] ;
294 -> 296 ;
297 [label="X[2] <= 3458.0000\ngini = 0.357777777778\nsamples = 390", shape="box"] ;
293 -> 297 ;
298 [label="gini = 0.3734\nsamples = 318\nvalue = [ 239.   79.]", shape="box"] ;
297 -> 298 ;
299 [label="gini = 0.2778\nsamples = 72\nvalue = [ 60.  12.]", shape="box"] ;
297 -> 299 ;
300 [label="gini = 0.2076\nsamples = 51\nvalue = [ 45.   6.]", shape="box"] ;
292 -> 300 ;
301 [label="X[2] <= 4148.0000\ngini = 0.459481059193\nsamples = 137", shape="box"] ;
291 -> 301 ;
302 [label="gini = 0.4928\nsamples = 50\nvalue = [ 28.  22.]", shape="box"] ;
301 -> 302 ;
303 [label="gini = 0.4281\nsamples = 87\nvalue = [ 60.  27.]", shape="box"] ;
301 -> 303 ;
304 [label="X[1] <= 0.4880\ngini = 0.31238178778\nsamples = 573", shape="box"] ;
290 -> 304 ;
305 [label="X[2] <= 10484.0000\ngini = 0.291586645152\nsamples = 491", shape="box"] ;
304 -> 305 ;
306 [label="X[2] <= 8839.5000\ngini = 0.305460248995\nsamples = 404", shape="box"] ;
305 -> 306 ;
307 [label="X[1] <= 0.0452\ngini = 0.28893357592\nsamples = 354", shape="box"] ;
306 -> 307 ;
308 [label="gini = 0.3673\nsamples = 66\nvalue = [ 50.  16.]", shape="box"] ;
307 -> 308 ;
309 [label="gini = 0.2684\nsamples = 288\nvalue = [ 242.   46.]", shape="box"] ;
307 -> 309 ;
310 [label="gini = 0.4032\nsamples = 50\nvalue = [ 36.  14.]", shape="box"] ;
306 -> 310 ;
311 [label="gini = 0.2209\nsamples = 87\nvalue = [ 76.  11.]", shape="box"] ;
305 -> 311 ;
312 [label="gini = 0.4140\nsamples = 82\nvalue = [ 58.  24.]", shape="box"] ;
304 -> 312 ;
313 [label="X[1] <= 0.2245\ngini = 0.42272449158\nsamples = 524", shape="box"] ;
289 -> 313 ;
314 [label="X[1] <= 0.0649\ngini = 0.452870113881\nsamples = 228", shape="box"] ;
313 -> 314 ;
315 [label="gini = 0.3930\nsamples = 67\nvalue = [ 49.  18.]", shape="box"] ;
314 -> 315 ;
316 [label="X[1] <= 0.1365\ngini = 0.470660854134\nsamples = 161", shape="box"] ;
314 -> 316 ;
317 [label="gini = 0.4945\nsamples = 67\nvalue = [ 37.  30.]", shape="box"] ;
316 -> 317 ;
318 [label="gini = 0.4421\nsamples = 94\nvalue = [ 63.  31.]", shape="box"] ;
316 -> 318 ;
319 [label="X[1] <= 0.3111\ngini = 0.394448502557\nsamples = 296", shape="box"] ;
313 -> 319 ;
320 [label="gini = 0.2103\nsamples = 67\nvalue = [ 59.   8.]", shape="box"] ;
319 -> 320 ;
321 [label="X[1] <= 0.3823\ngini = 0.431113060392\nsamples = 229", shape="box"] ;
319 -> 321 ;
322 [label="gini = 0.4767\nsamples = 51\nvalue = [ 31.  20.]", shape="box"] ;
321 -> 322 ;
323 [label="X[1] <= 0.5513\ngini = 0.413584143416\nsamples = 178", shape="box"] ;
321 -> 323 ;
324 [label="gini = 0.3634\nsamples = 88\nvalue = [ 67.  21.]", shape="box"] ;
323 -> 324 ;
325 [label="gini = 0.4516\nsamples = 90\nvalue = [ 59.  31.]", shape="box"] ;
323 -> 325 ;
326 [label="X[1] <= 0.6488\ngini = 0.488615328262\nsamples = 391", shape="box"] ;
288 -> 326 ;
327 [label="X[2] <= 6185.0000\ngini = 0.475907198096\nsamples = 328", shape="box"] ;
326 -> 327 ;
328 [label="X[0] <= 2.5000\ngini = 0.495485350423\nsamples = 221", shape="box"] ;
327 -> 328 ;
329 [label="X[1] <= 0.2204\ngini = 0.481725778547\nsamples = 136", shape="box"] ;
328 -> 329 ;
330 [label="gini = 0.4555\nsamples = 57\nvalue = [ 37.  20.]", shape="box"] ;
329 -> 330 ;
331 [label="gini = 0.4935\nsamples = 79\nvalue = [ 44.  35.]", shape="box"] ;
329 -> 331 ;
332 [label="gini = 0.4983\nsamples = 85\nvalue = [ 40.  45.]", shape="box"] ;
328 -> 332 ;
333 [label="X[1] <= 0.3163\ngini = 0.386409293388\nsamples = 107", shape="box"] ;
327 -> 333 ;
334 [label="gini = 0.3336\nsamples = 52\nvalue = [ 41.  11.]", shape="box"] ;
333 -> 334 ;
335 [label="gini = 0.4271\nsamples = 55\nvalue = [ 38.  17.]", shape="box"] ;
333 -> 335 ;
336 [label="gini = 0.4787\nsamples = 63\nvalue = [ 25.  38.]", shape="box"] ;
326 -> 336 ;
337 [label="X[1] <= 0.1585\ngini = 0.499946307283\nsamples = 772", shape="box"] ;
287 -> 337 ;
338 [label="X[2] <= 7124.0000\ngini = 0.468115498419\nsamples = 198", shape="box"] ;
337 -> 338 ;
339 [label="X[2] <= 3650.0000\ngini = 0.442932797663\nsamples = 148", shape="box"] ;
338 -> 339 ;
340 [label="gini = 0.4917\nsamples = 62\nvalue = [ 35.  27.]", shape="box"] ;
339 -> 340 ;
341 [label="gini = 0.3807\nsamples = 86\nvalue = [ 64.  22.]", shape="box"] ;
339 -> 341 ;
342 [label="gini = 0.5000\nsamples = 50\nvalue = [ 25.  25.]", shape="box"] ;
338 -> 342 ;
343 [label="X[2] <= 7915.0000\ngini = 0.497323022011\nsamples = 574", shape="box"] ;
337 -> 343 ;
344 [label="X[0] <= 0.5000\ngini = 0.492493243138\nsamples = 506", shape="box"] ;
343 -> 344 ;
345 [label="X[2] <= 3787.5000\ngini = 0.497122473246\nsamples = 145", shape="box"] ;
344 -> 345 ;
346 [label="gini = 0.4992\nsamples = 73\nvalue = [ 35.  38.]", shape="box"] ;
345 -> 346 ;
347 [label="gini = 0.4811\nsamples = 72\nvalue = [ 43.  29.]", shape="box"] ;
345 -> 347 ;
348 [label="X[4] <= 1.5000\ngini = 0.479554331228\nsamples = 361", shape="box"] ;
344 -> 348 ;
349 [label="X[0] <= 2.5000\ngini = 0.4928409672\nsamples = 234", shape="box"] ;
348 -> 349 ;
350 [label="X[2] <= 3619.0000\ngini = 0.498780673678\nsamples = 162", shape="box"] ;
349 -> 350 ;
351 [label="gini = 0.4954\nsamples = 73\nvalue = [ 40.  33.]", shape="box"] ;
350 -> 351 ;
352 [label="gini = 0.4858\nsamples = 89\nvalue = [ 37.  52.]", shape="box"] ;
350 -> 352 ;
353 [label="gini = 0.4614\nsamples = 72\nvalue = [ 26.  46.]", shape="box"] ;
349 -> 353 ;
354 [label="X[1] <= 0.4794\ngini = 0.43722487445\nsamples = 127", shape="box"] ;
348 -> 354 ;
355 [label="gini = 0.4745\nsamples = 62\nvalue = [ 24.  38.]", shape="box"] ;
354 -> 355 ;
356 [label="gini = 0.3863\nsamples = 65\nvalue = [ 17.  48.]", shape="box"] ;
354 -> 356 ;
357 [label="gini = 0.4567\nsamples = 68\nvalue = [ 44.  24.]", shape="box"] ;
343 -> 357 ;
358 [label="X[3] <= 2.5000\ngini = 0.496844234466\nsamples = 1586", shape="box"] ;
286 -> 358 ;
359 [label="X[0] <= 0.5000\ngini = 0.498517302225\nsamples = 808", shape="box"] ;
358 -> 359 ;
360 [label="X[2] <= 5375.5000\ngini = 0.476476889506\nsamples = 355", shape="box"] ;
359 -> 360 ;
361 [label="X[2] <= 1996.0000\ngini = 0.489648568915\nsamples = 278", shape="box"] ;
360 -> 361 ;
362 [label="gini = 0.4962\nsamples = 57\nvalue = [ 26.  31.]", shape="box"] ;
361 -> 362 ;
363 [label="X[2] <= 2860.5000\ngini = 0.479269466227\nsamples = 221", shape="box"] ;
361 -> 363 ;
364 [label="gini = 0.4200\nsamples = 50\nvalue = [ 35.  15.]", shape="box"] ;
363 -> 364 ;
365 [label="X[4] <= 0.5000\ngini = 0.489312950993\nsamples = 171", shape="box"] ;
363 -> 365 ;
366 [label="X[1] <= 0.1708\ngini = 0.470868014269\nsamples = 116", shape="box"] ;
365 -> 366 ;
367 [label="gini = 0.4545\nsamples = 63\nvalue = [ 41.  22.]", shape="box"] ;
366 -> 367 ;
368 [label="gini = 0.4856\nsamples = 53\nvalue = [ 31.  22.]", shape="box"] ;
366 -> 368 ;
369 [label="gini = 0.4985\nsamples = 55\nvalue = [ 26.  29.]", shape="box"] ;
365 -> 369 ;
370 [label="gini = 0.3846\nsamples = 77\nvalue = [ 57.  20.]", shape="box"] ;
360 -> 370 ;
371 [label="X[1] <= 0.4987\ngini = 0.497346607605\nsamples = 453", shape="box"] ;
359 -> 371 ;
372 [label="X[1] <= 0.3377\ngini = 0.499616568047\nsamples = 325", shape="box"] ;
371 -> 372 ;
373 [label="X[1] <= 0.2578\ngini = 0.499435068145\nsamples = 238", shape="box"] ;
372 -> 373 ;
374 [label="X[1] <= 0.1602\ngini = 0.49858533273\nsamples = 188", shape="box"] ;
373 -> 374 ;
375 [label="X[2] <= 4647.0000\ngini = 0.49922499845\nsamples = 127", shape="box"] ;
374 -> 375 ;
376 [label="gini = 0.4878\nsamples = 64\nvalue = [ 37.  27.]", shape="box"] ;
375 -> 376 ;
377 [label="gini = 0.4717\nsamples = 63\nvalue = [ 24.  39.]", shape="box"] ;
375 -> 377 ;
378 [label="gini = 0.4698\nsamples = 61\nvalue = [ 38.  23.]", shape="box"] ;
374 -> 378 ;
379 [label="gini = 0.4352\nsamples = 50\nvalue = [ 16.  34.]", shape="box"] ;
373 -> 379 ;
380 [label="gini = 0.4809\nsamples = 87\nvalue = [ 52.  35.]", shape="box"] ;
372 -> 380 ;
381 [label="X[4] <= 0.5000\ngini = 0.446166992188\nsamples = 128", shape="box"] ;
371 -> 381 ;
382 [label="gini = 0.4891\nsamples = 61\nvalue = [ 26.  35.]", shape="box"] ;
381 -> 382 ;
383 [label="gini = 0.3787\nsamples = 67\nvalue = [ 17.  50.]", shape="box"] ;
381 -> 383 ;
384 [label="X[1] <= 0.5700\ngini = 0.476126909021\nsamples = 778", shape="box"] ;
358 -> 384 ;
385 [label="X[1] <= 0.0343\ngini = 0.488073189074\nsamples = 641", shape="box"] ;
384 -> 385 ;
386 [label="X[2] <= 2944.5000\ngini = 0.499917817226\nsamples = 156", shape="box"] ;
385 -> 386 ;
387 [label="gini = 0.4959\nsamples = 88\nvalue = [ 40.  48.]", shape="box"] ;
386 -> 387 ;
388 [label="gini = 0.4892\nsamples = 68\nvalue = [ 39.  29.]", shape="box"] ;
386 -> 388 ;
389 [label="X[4] <= 1.5000\ngini = 0.478316505473\nsamples = 485", shape="box"] ;
385 -> 389 ;
390 [label="X[3] <= 3.5000\ngini = 0.487452210568\nsamples = 404", shape="box"] ;
389 -> 390 ;
391 [label="X[0] <= 1.5000\ngini = 0.497737738543\nsamples = 223", shape="box"] ;
390 -> 391 ;
392 [label="X[2] <= 4750.0000\ngini = 0.5\nsamples = 156", shape="box"] ;
391 -> 392 ;
393 [label="gini = 0.4938\nsamples = 99\nvalue = [ 44.  55.]", shape="box"] ;
392 -> 393 ;
394 [label="gini = 0.4814\nsamples = 57\nvalue = [ 34.  23.]", shape="box"] ;
392 -> 394 ;
395 [label="gini = 0.4749\nsamples = 67\nvalue = [ 26.  41.]", shape="box"] ;
391 -> 395 ;
396 [label="X[3] <= 4.5000\ngini = 0.463355819419\nsamples = 181", shape="box"] ;
390 -> 396 ;
397 [label="gini = 0.4147\nsamples = 92\nvalue = [ 27.  65.]", shape="box"] ;
396 -> 397 ;
398 [label="gini = 0.4924\nsamples = 89\nvalue = [ 39.  50.]", shape="box"] ;
396 -> 398 ;
399 [label="gini = 0.3957\nsamples = 81\nvalue = [ 22.  59.]", shape="box"] ;
389 -> 399 ;
400 [label="X[1] <= 0.9353\ngini = 0.36570941446\nsamples = 137", shape="box"] ;
384 -> 400 ;
401 [label="gini = 0.2752\nsamples = 85\nvalue = [ 14.  71.]", shape="box"] ;
400 -> 401 ;
402 [label="gini = 0.4638\nsamples = 52\nvalue = [ 19.  33.]", shape="box"] ;
400 -> 402 ;
}