digraph Tree {
0 [label="NumberOfTimes90DaysLate <= 0.0051\nentropy = 0.364031164675\nsamples = 80180", shape="box"] ;
1 [label="NumberOfTime60-89DaysPastDueNotWorse <= 0.0051\nentropy = 0.282514770072\nsamples = 75638", shape="box"] ;
0 -> 1 ;
2 [label="age <= 0.5583\nentropy = 0.250378080421\nsamples = 72960", shape="box"] ;
1 -> 2 ;
3 [label="NumberOfDependents <= 0.0250\nentropy = 0.295027494127\nsamples = 47496", shape="box"] ;
2 -> 3 ;
4 [label="age <= 0.2767\nentropy = 0.279721810175\nsamples = 21471", shape="box"] ;
3 -> 4 ;
5 [label="age <= 0.2184\nentropy = 0.330099614155\nsamples = 2835", shape="box"] ;
4 -> 5 ;
6 [label="age <= 0.2087\nentropy = 0.208472993116\nsamples = 274", shape="box"] ;
5 -> 6 ;
7 [label="entropy = 0.1738\nsamples = 77\nvalue = [ 75.   2.]", shape="box"] ;
6 -> 7 ;
8 [label="NumberOfTime30-59DaysPastDueNotWorse <= 0.0051\nentropy = 0.221422123836\nsamples = 197", shape="box"] ;
6 -> 8 ;
9 [label="entropy = 0.2056\nsamples = 186\nvalue = [ 180.    6.]", shape="box"] ;
8 -> 9 ;
10 [label="entropy = 0.4395\nsamples = 11\nvalue = [ 10.   1.]", shape="box"] ;
8 -> 10 ;
11 [label="NumberOfTime30-59DaysPastDueNotWorse <= 0.0051\nentropy = 0.341755215283\nsamples = 2561", shape="box"] ;
5 -> 11 ;
12 [label="age <= 0.2476\nentropy = 0.289031918447\nsamples = 2252", shape="box"] ;
11 -> 12 ;
13 [label="age <= 0.2379\nentropy = 0.262092839893\nsamples = 901", shape="box"] ;
12 -> 13 ;
14 [label="age <= 0.2282\nentropy = 0.293547326838\nsamples = 561", shape="box"] ;
13 -> 14 ;
15 [label="entropy = 0.3020\nsamples = 242\nvalue = [ 229.   13.]", shape="box"] ;
14 -> 15 ;
16 [label="entropy = 0.2871\nsamples = 319\nvalue = [ 303.   16.]", shape="box"] ;
14 -> 16 ;
17 [label="entropy = 0.2061\nsamples = 340\nvalue = [ 329.   11.]", shape="box"] ;
13 -> 17 ;
18 [label="age <= 0.2670\nentropy = 0.306341406367\nsamples = 1351", shape="box"] ;
12 -> 18 ;
19 [label="age <= 0.2573\nentropy = 0.308740491438\nsamples = 849", shape="box"] ;
18 -> 19 ;
20 [label="entropy = 0.3031\nsamples = 426\nvalue = [ 403.   23.]", shape="box"] ;
19 -> 20 ;
21 [label="entropy = 0.3144\nsamples = 423\nvalue = [ 399.   24.]", shape="box"] ;
19 -> 21 ;
22 [label="entropy = 0.3023\nsamples = 502\nvalue = [ 475.   27.]", shape="box"] ;
18 -> 22 ;
23 [label="NumberOfTime30-59DaysPastDueNotWorse <= 0.0153\nentropy = 0.630892109623\nsamples = 309", shape="box"] ;
11 -> 23 ;
24 [label="age <= 0.2670\nentropy = 0.560576942615\nsamples = 244", shape="box"] ;
23 -> 24 ;
25 [label="age <= 0.2476\nentropy = 0.490652862343\nsamples = 187", shape="box"] ;
24 -> 25 ;
26 [label="entropy = 0.6500\nsamples = 78\nvalue = [ 65.  13.]", shape="box"] ;
25 -> 26 ;
27 [label="age <= 0.2573\nentropy = 0.34397451436\nsamples = 109", shape="box"] ;
25 -> 27 ;
28 [label="entropy = 0.4022\nsamples = 50\nvalue = [ 46.   4.]", shape="box"] ;
27 -> 28 ;
29 [label="entropy = 0.2900\nsamples = 59\nvalue = [ 56.   3.]", shape="box"] ;
27 -> 29 ;
30 [label="entropy = 0.7425\nsamples = 57\nvalue = [ 45.  12.]", shape="box"] ;
24 -> 30 ;
31 [label="entropy = 0.8291\nsamples = 65\nvalue = [ 48.  17.]", shape="box"] ;
23 -> 31 ;
32 [label="age <= 0.4515\nentropy = 0.27167228347\nsamples = 18636", shape="box"] ;
4 -> 32 ;
33 [label="NumberOfTime30-59DaysPastDueNotWorse <= 0.0051\nentropy = 0.283810267543\nsamples = 10204", shape="box"] ;
32 -> 33 ;
34 [label="age <= 0.4320\nentropy = 0.23367542828\nsamples = 8837", shape="box"] ;
33 -> 34 ;
35 [label="age <= 0.4223\nentropy = 0.22609267321\nsamples = 7777", shape="box"] ;
34 -> 35 ;
36 [label="age <= 0.4029\nentropy = 0.229917128066\nsamples = 7313", shape="box"] ;
35 -> 36 ;
37 [label="age <= 0.3252\nentropy = 0.221190533325\nsamples = 6369", shape="box"] ;
36 -> 37 ;
38 [label="age <= 0.3155\nentropy = 0.231587203106\nsamples = 2733", shape="box"] ;
37 -> 38 ;
39 [label="age <= 0.2864\nentropy = 0.219795470617\nsamples = 2188", shape="box"] ;
38 -> 39 ;
40 [label="entropy = 0.2409\nsamples = 529\nvalue = [ 508.   21.]", shape="box"] ;
39 -> 40 ;
41 [label="age <= 0.2961\nentropy = 0.212888111876\nsamples = 1659", shape="box"] ;
39 -> 41 ;
42 [label="entropy = 0.2208\nsamples = 565\nvalue = [ 545.   20.]", shape="box"] ;
41 -> 42 ;
43 [label="age <= 0.3058\nentropy = 0.208765945033\nsamples = 1094", shape="box"] ;
41 -> 43 ;
44 [label="entropy = 0.1982\nsamples = 585\nvalue = [ 567.   18.]", shape="box"] ;
43 -> 44 ;
45 [label="entropy = 0.2206\nsamples = 509\nvalue = [ 491.   18.]", shape="box"] ;
43 -> 45 ;
46 [label="entropy = 0.2766\nsamples = 545\nvalue = [ 519.   26.]", shape="box"] ;
38 -> 46 ;
47 [label="age <= 0.3641\nentropy = 0.21324178105\nsamples = 3636", shape="box"] ;
37 -> 47 ;
48 [label="age <= 0.3544\nentropy = 0.196815740509\nsamples = 1837", shape="box"] ;
47 -> 48 ;
49 [label="age <= 0.3350\nentropy = 0.202908437013\nsamples = 1419", shape="box"] ;
48 -> 49 ;
50 [label="entropy = 0.2118\nsamples = 507\nvalue = [ 490.   17.]", shape="box"] ;
49 -> 50 ;
51 [label="age <= 0.3447\nentropy = 0.197899005042\nsamples = 912", shape="box"] ;
49 -> 51 ;
52 [label="entropy = 0.1986\nsamples = 454\nvalue = [ 440.   14.]", shape="box"] ;
51 -> 52 ;
53 [label="entropy = 0.1972\nsamples = 458\nvalue = [ 444.   14.]", shape="box"] ;
51 -> 53 ;
54 [label="entropy = 0.1756\nsamples = 418\nvalue = [ 407.   11.]", shape="box"] ;
48 -> 54 ;
55 [label="age <= 0.3835\nentropy = 0.229504994505\nsamples = 1799", shape="box"] ;
47 -> 55 ;
56 [label="age <= 0.3738\nentropy = 0.235598244569\nsamples = 882", shape="box"] ;
55 -> 56 ;
57 [label="entropy = 0.2219\nsamples = 421\nvalue = [ 406.   15.]", shape="box"] ;
56 -> 57 ;
58 [label="entropy = 0.2478\nsamples = 461\nvalue = [ 442.   19.]", shape="box"] ;
56 -> 58 ;
59 [label="age <= 0.3932\nentropy = 0.22357959378\nsamples = 917", shape="box"] ;
55 -> 59 ;
60 [label="entropy = 0.2202\nsamples = 482\nvalue = [ 465.   17.]", shape="box"] ;
59 -> 60 ;
61 [label="entropy = 0.2273\nsamples = 435\nvalue = [ 419.   16.]", shape="box"] ;
59 -> 61 ;
62 [label="age <= 0.4126\nentropy = 0.285496289901\nsamples = 944", shape="box"] ;
36 -> 62 ;
63 [label="entropy = 0.2736\nsamples = 468\nvalue = [ 446.   22.]", shape="box"] ;
62 -> 63 ;
64 [label="entropy = 0.2970\nsamples = 476\nvalue = [ 451.   25.]", shape="box"] ;
62 -> 64 ;
65 [label="entropy = 0.1618\nsamples = 464\nvalue = [ 453.   11.]", shape="box"] ;
35 -> 65 ;
66 [label="age <= 0.4417\nentropy = 0.286396957116\nsamples = 1060", shape="box"] ;
34 -> 66 ;
67 [label="entropy = 0.2945\nsamples = 520\nvalue = [ 493.   27.]", shape="box"] ;
66 -> 67 ;
68 [label="entropy = 0.2785\nsamples = 540\nvalue = [ 514.   26.]", shape="box"] ;
66 -> 68 ;
69 [label="NumberOfTime30-59DaysPastDueNotWorse <= 0.0357\nentropy = 0.535553163716\nsamples = 1367", shape="box"] ;
33 -> 69 ;
70 [label="NumberOfTime30-59DaysPastDueNotWorse <= 0.0153\nentropy = 0.508718953557\nsamples = 1337", shape="box"] ;
69 -> 70 ;
71 [label="age <= 0.2864\nentropy = 0.458586241134\nsamples = 1044", shape="box"] ;
70 -> 71 ;
72 [label="entropy = 0.2525\nsamples = 71\nvalue = [ 68.   3.]", shape="box"] ;
71 -> 72 ;
73 [label="age <= 0.3738\nentropy = 0.471271975662\nsamples = 973", shape="box"] ;
71 -> 73 ;
74 [label="age <= 0.3447\nentropy = 0.439496986922\nsamples = 550", shape="box"] ;
73 -> 74 ;
75 [label="age <= 0.3155\nentropy = 0.504141874151\nsamples = 377", shape="box"] ;
74 -> 75 ;
76 [label="age <= 0.2961\nentropy = 0.441028092775\nsamples = 197", shape="box"] ;
75 -> 76 ;
77 [label="entropy = 0.5586\nsamples = 69\nvalue = [ 60.   9.]", shape="box"] ;
76 -> 77 ;
78 [label="age <= 0.3058\nentropy = 0.367088759011\nsamples = 128", shape="box"] ;
76 -> 78 ;
79 [label="entropy = 0.3712\nsamples = 70\nvalue = [ 65.   5.]", shape="box"] ;
78 -> 79 ;
80 [label="entropy = 0.3621\nsamples = 58\nvalue = [ 54.   4.]", shape="box"] ;
78 -> 80 ;
81 [label="age <= 0.3252\nentropy = 0.566509506553\nsamples = 180", shape="box"] ;
75 -> 81 ;
82 [label="entropy = 0.6681\nsamples = 63\nvalue = [ 52.  11.]", shape="box"] ;
81 -> 82 ;
83 [label="age <= 0.3350\nentropy = 0.503258334776\nsamples = 117", shape="box"] ;
81 -> 83 ;
84 [label="entropy = 0.4508\nsamples = 53\nvalue = [ 48.   5.]", shape="box"] ;
83 -> 84 ;
85 [label="entropy = 0.5436\nsamples = 64\nvalue = [ 56.   8.]", shape="box"] ;
83 -> 85 ;
86 [label="age <= 0.3544\nentropy = 0.270216867229\nsamples = 173", shape="box"] ;
74 -> 86 ;
87 [label="entropy = 0.3193\nsamples = 69\nvalue = [ 65.   4.]", shape="box"] ;
86 -> 87 ;
88 [label="age <= 0.3641\nentropy = 0.235193381819\nsamples = 104", shape="box"] ;
86 -> 88 ;
89 [label="entropy = 0.1537\nsamples = 45\nvalue = [ 44.   1.]", shape="box"] ;
88 -> 89 ;
90 [label="entropy = 0.2900\nsamples = 59\nvalue = [ 56.   3.]", shape="box"] ;
88 -> 90 ;
91 [label="age <= 0.4223\nentropy = 0.510309965287\nsamples = 423", shape="box"] ;
73 -> 91 ;
92 [label="age <= 0.4029\nentropy = 0.546158203525\nsamples = 270", shape="box"] ;
91 -> 92 ;
93 [label="age <= 0.3835\nentropy = 0.49319675011\nsamples = 167", shape="box"] ;
92 -> 93 ;
94 [label="entropy = 0.5746\nsamples = 66\nvalue = [ 57.   9.]", shape="box"] ;
93 -> 94 ;
95 [label="age <= 0.3932\nentropy = 0.433488463245\nsamples = 101", shape="box"] ;
93 -> 95 ;
96 [label="entropy = 0.4821\nsamples = 48\nvalue = [ 43.   5.]", shape="box"] ;
95 -> 96 ;
97 [label="entropy = 0.3860\nsamples = 53\nvalue = [ 49.   4.]", shape="box"] ;
95 -> 97 ;
98 [label="age <= 0.4126\nentropy = 0.623043399622\nsamples = 103", shape="box"] ;
92 -> 98 ;
99 [label="entropy = 0.6752\nsamples = 45\nvalue = [ 37.   8.]", shape="box"] ;
98 -> 99 ;
100 [label="entropy = 0.5788\nsamples = 58\nvalue = [ 50.   8.]", shape="box"] ;
98 -> 100 ;
101 [label="age <= 0.4320\nentropy = 0.441467724932\nsamples = 153", shape="box"] ;
91 -> 101 ;
102 [label="entropy = 0.3912\nsamples = 52\nvalue = [ 48.   4.]", shape="box"] ;
101 -> 102 ;
103 [label="age <= 0.4417\nentropy = 0.465849173772\nsamples = 101", shape="box"] ;
101 -> 103 ;
104 [label="entropy = 0.4821\nsamples = 48\nvalue = [ 43.   5.]", shape="box"] ;
103 -> 104 ;
105 [label="entropy = 0.4508\nsamples = 53\nvalue = [ 48.   5.]", shape="box"] ;
103 -> 105 ;
106 [label="age <= 0.4320\nentropy = 0.659186042597\nsamples = 293", shape="box"] ;
70 -> 106 ;
107 [label="age <= 0.2961\nentropy = 0.684802430439\nsamples = 258", shape="box"] ;
106 -> 107 ;
108 [label="entropy = 0.8015\nsamples = 41\nvalue = [ 31.  10.]", shape="box"] ;
107 -> 108 ;
109 [label="NumberOfTime30-59DaysPastDueNotWorse <= 0.0255\nentropy = 0.658863067156\nsamples = 217", shape="box"] ;
107 -> 109 ;
110 [label="age <= 0.3350\nentropy = 0.658743530769\nsamples = 176", shape="box"] ;
109 -> 110 ;
111 [label="entropy = 0.4690\nsamples = 50\nvalue = [ 45.   5.]", shape="box"] ;
110 -> 111 ;
112 [label="age <= 0.3447\nentropy = 0.71874210999\nsamples = 126", shape="box"] ;
110 -> 112 ;
113 [label="entropy = 0.9799\nsamples = 12\nvalue = [ 7.  5.]", shape="box"] ;
112 -> 113 ;
114 [label="age <= 0.3738\nentropy = 0.669996032099\nsamples = 114", shape="box"] ;
112 -> 114 ;
115 [label="entropy = 0.7321\nsamples = 39\nvalue = [ 31.   8.]", shape="box"] ;
114 -> 115 ;
116 [label="entropy = 0.6343\nsamples = 75\nvalue = [ 63.  12.]", shape="box"] ;
114 -> 116 ;
117 [label="entropy = 0.6594\nsamples = 41\nvalue = [ 34.   7.]", shape="box"] ;
109 -> 117 ;
118 [label="entropy = 0.4220\nsamples = 35\nvalue = [ 32.   3.]", shape="box"] ;
106 -> 118 ;
119 [label="entropy = 0.9968\nsamples = 30\nvalue = [ 14.  16.]", shape="box"] ;
69 -> 119 ;
120 [label="NumberOfTime30-59DaysPastDueNotWorse <= 0.0051\nentropy = 0.256637343881\nsamples = 8432", shape="box"] ;
32 -> 120 ;
121 [label="age <= 0.4612\nentropy = 0.18262881059\nsamples = 7225", shape="box"] ;
120 -> 121 ;
122 [label="entropy = 0.1472\nsamples = 523\nvalue = [ 512.   11.]", shape="box"] ;
121 -> 122 ;
123 [label="age <= 0.5097\nentropy = 0.185285770293\nsamples = 6702", shape="box"] ;
121 -> 123 ;
124 [label="age <= 0.5000\nentropy = 0.194955767835\nsamples = 3022", shape="box"] ;
123 -> 124 ;
125 [label="age <= 0.4806\nentropy = 0.185543077275\nsamples = 2407", shape="box"] ;
124 -> 125 ;
126 [label="age <= 0.4709\nentropy = 0.197582859182\nsamples = 1175", shape="box"] ;
125 -> 126 ;
127 [label="entropy = 0.1981\nsamples = 553\nvalue = [ 536.   17.]", shape="box"] ;
126 -> 127 ;
128 [label="entropy = 0.1971\nsamples = 622\nvalue = [ 603.   19.]", shape="box"] ;
126 -> 128 ;
129 [label="age <= 0.4903\nentropy = 0.173781322679\nsamples = 1232", shape="box"] ;
125 -> 129 ;
130 [label="entropy = 0.1751\nsamples = 610\nvalue = [ 594.   16.]", shape="box"] ;
129 -> 130 ;
131 [label="entropy = 0.1725\nsamples = 622\nvalue = [ 606.   16.]", shape="box"] ;
129 -> 131 ;
132 [label="entropy = 0.2302\nsamples = 615\nvalue = [ 592.   23.]", shape="box"] ;
124 -> 132 ;
133 [label="age <= 0.5485\nentropy = 0.177201379565\nsamples = 3680", shape="box"] ;
123 -> 133 ;
134 [label="age <= 0.5291\nentropy = 0.170122769127\nsamples = 2888", shape="box"] ;
133 -> 134 ;
135 [label="age <= 0.5194\nentropy = 0.161102533976\nsamples = 1357", shape="box"] ;
134 -> 135 ;
136 [label="entropy = 0.1572\nsamples = 656\nvalue = [ 641.   15.]", shape="box"] ;
135 -> 136 ;
137 [label="entropy = 0.1647\nsamples = 701\nvalue = [ 684.   17.]", shape="box"] ;
135 -> 137 ;
138 [label="age <= 0.5388\nentropy = 0.177976667395\nsamples = 1531", shape="box"] ;
134 -> 138 ;
139 [label="entropy = 0.1920\nsamples = 745\nvalue = [ 723.   22.]", shape="box"] ;
138 -> 139 ;
140 [label="entropy = 0.1643\nsamples = 786\nvalue = [ 767.   19.]", shape="box"] ;
138 -> 140 ;
141 [label="entropy = 0.2022\nsamples = 792\nvalue = [ 767.   25.]", shape="box"] ;
133 -> 141 ;
142 [label="NumberOfTime30-59DaysPastDueNotWorse <= 0.0153\nentropy = 0.573330524711\nsamples = 1207", shape="box"] ;
120 -> 142 ;
143 [label="age <= 0.5291\nentropy = 0.459515904133\nsamples = 876", shape="box"] ;
142 -> 143 ;
144 [label="age <= 0.5097\nentropy = 0.504383432782\nsamples = 592", shape="box"] ;
143 -> 144 ;
145 [label="age <= 0.4806\nentropy = 0.479327452316\nsamples = 426", shape="box"] ;
144 -> 145 ;
146 [label="age <= 0.4709\nentropy = 0.515425864321\nsamples = 217", shape="box"] ;
145 -> 146 ;
147 [label="age <= 0.4612\nentropy = 0.492915779616\nsamples = 130", shape="box"] ;
146 -> 147 ;
148 [label="entropy = 0.5226\nsamples = 68\nvalue = [ 60.   8.]", shape="box"] ;
147 -> 148 ;
149 [label="entropy = 0.4587\nsamples = 62\nvalue = [ 56.   6.]", shape="box"] ;
147 -> 149 ;
150 [label="entropy = 0.5476\nsamples = 87\nvalue = [ 76.  11.]", shape="box"] ;
146 -> 150 ;
151 [label="age <= 0.5000\nentropy = 0.439496986922\nsamples = 209", shape="box"] ;
145 -> 151 ;
152 [label="age <= 0.4903\nentropy = 0.413816850304\nsamples = 132", shape="box"] ;
151 -> 152 ;
153 [label="entropy = 0.4489\nsamples = 64\nvalue = [ 58.   6.]", shape="box"] ;
152 -> 153 ;
154 [label="entropy = 0.3790\nsamples = 68\nvalue = [ 63.   5.]", shape="box"] ;
152 -> 154 ;
155 [label="entropy = 0.4812\nsamples = 77\nvalue = [ 69.   8.]", shape="box"] ;
151 -> 155 ;
156 [label="age <= 0.5194\nentropy = 0.564336444493\nsamples = 166", shape="box"] ;
144 -> 156 ;
157 [label="entropy = 0.5813\nsamples = 72\nvalue = [ 62.  10.]", shape="box"] ;
156 -> 157 ;
158 [label="entropy = 0.5510\nsamples = 94\nvalue = [ 82.  12.]", shape="box"] ;
156 -> 158 ;
159 [label="age <= 0.5485\nentropy = 0.354252442181\nsamples = 284", shape="box"] ;
143 -> 159 ;
160 [label="age <= 0.5388\nentropy = 0.286396957116\nsamples = 200", shape="box"] ;
159 -> 160 ;
161 [label="entropy = 0.2975\nsamples = 95\nvalue = [ 90.   5.]", shape="box"] ;
160 -> 161 ;
162 [label="entropy = 0.2762\nsamples = 105\nvalue = [ 100.    5.]", shape="box"] ;
160 -> 162 ;
163 [label="entropy = 0.4912\nsamples = 84\nvalue = [ 75.   9.]", shape="box"] ;
159 -> 163 ;
164 [label="NumberOfTime30-59DaysPastDueNotWorse <= 0.0357\nentropy = 0.792822694336\nsamples = 331", shape="box"] ;
142 -> 164 ;
165 [label="age <= 0.5000\nentropy = 0.745910576136\nsamples = 292", shape="box"] ;
164 -> 165 ;
166 [label="NumberOfTime30-59DaysPastDueNotWorse <= 0.0255\nentropy = 0.811278124459\nsamples = 104", shape="box"] ;
165 -> 166 ;
167 [label="entropy = 0.8631\nsamples = 70\nvalue = [ 50.  20.]", shape="box"] ;
166 -> 167 ;
168 [label="entropy = 0.6723\nsamples = 34\nvalue = [ 28.   6.]", shape="box"] ;
166 -> 168 ;
169 [label="NumberOfTime30-59DaysPastDueNotWorse <= 0.0255\nentropy = 0.704576712873\nsamples = 188", shape="box"] ;
165 -> 169 ;
170 [label="age <= 0.5194\nentropy = 0.672294817076\nsamples = 136", shape="box"] ;
169 -> 170 ;
171 [label="entropy = 0.4690\nsamples = 40\nvalue = [ 36.   4.]", shape="box"] ;
170 -> 171 ;
172 [label="entropy = 0.7383\nsamples = 96\nvalue = [ 76.  20.]", shape="box"] ;
170 -> 172 ;
173 [label="entropy = 0.7793\nsamples = 52\nvalue = [ 40.  12.]", shape="box"] ;
169 -> 173 ;
174 [label="entropy = 0.9881\nsamples = 39\nvalue = [ 22.  17.]", shape="box"] ;
164 -> 174 ;
175 [label="NumberOfDependents <= 0.3250\nentropy = 0.307366882376\nsamples = 26025", shape="box"] ;
3 -> 175 ;
176 [label="NumberOfTime30-59DaysPastDueNotWorse <= 0.0051\nentropy = 0.3077055449\nsamples = 25986", shape="box"] ;
175 -> 176 ;
177 [label="NumberOfDependents <= 0.2750\nentropy = 0.238959738388\nsamples = 21693", shape="box"] ;
176 -> 177 ;
178 [label="NumberOfDependents <= 0.1250\nentropy = 0.238307678832\nsamples = 21618", shape="box"] ;
177 -> 178 ;
179 [label="NumberOfDependents <= 0.0750\nentropy = 0.242246704315\nsamples = 16129", shape="box"] ;
178 -> 179 ;
180 [label="age <= 0.3544\nentropy = 0.245976600929\nsamples = 8087", shape="box"] ;
179 -> 180 ;
181 [label="age <= 0.2767\nentropy = 0.346911853642\nsamples = 1662", shape="box"] ;
180 -> 181 ;
182 [label="age <= 0.2282\nentropy = 0.437473729788\nsamples = 299", shape="box"] ;
181 -> 182 ;
183 [label="entropy = 0.6666\nsamples = 23\nvalue = [ 19.   4.]", shape="box"] ;
182 -> 183 ;
184 [label="age <= 0.2379\nentropy = 0.413816850304\nsamples = 276", shape="box"] ;
182 -> 184 ;
185 [label="entropy = 0.0000\nsamples = 20\nvalue = [ 20.   0.]", shape="box"] ;
184 -> 185 ;
186 [label="age <= 0.2476\nentropy = 0.43594805979\nsamples = 256", shape="box"] ;
184 -> 186 ;
187 [label="entropy = 0.5917\nsamples = 35\nvalue = [ 30.   5.]", shape="box"] ;
186 -> 187 ;
188 [label="age <= 0.2573\nentropy = 0.407260743941\nsamples = 221", shape="box"] ;
186 -> 188 ;
189 [label="entropy = 0.4341\nsamples = 56\nvalue = [ 51.   5.]", shape="box"] ;
188 -> 189 ;
190 [label="age <= 0.2670\nentropy = 0.39789373922\nsamples = 165", shape="box"] ;
188 -> 190 ;
191 [label="entropy = 0.3877\nsamples = 79\nvalue = [ 73.   6.]", shape="box"] ;
190 -> 191 ;
192 [label="entropy = 0.4071\nsamples = 86\nvalue = [ 79.   7.]", shape="box"] ;
190 -> 192 ;
193 [label="age <= 0.3447\nentropy = 0.325169031692\nsamples = 1363", shape="box"] ;
181 -> 193 ;
194 [label="age <= 0.3350\nentropy = 0.330887140613\nsamples = 1150", shape="box"] ;
193 -> 194 ;
195 [label="age <= 0.3058\nentropy = 0.319337386534\nsamples = 966", shape="box"] ;
194 -> 195 ;
196 [label="age <= 0.2864\nentropy = 0.346083800349\nsamples = 386", shape="box"] ;
195 -> 196 ;
197 [label="entropy = 0.3298\nsamples = 99\nvalue = [ 93.   6.]", shape="box"] ;
196 -> 197 ;
198 [label="age <= 0.2961\nentropy = 0.351588021456\nsamples = 287", shape="box"] ;
196 -> 198 ;
199 [label="entropy = 0.3513\nsamples = 121\nvalue = [ 113.    8.]", shape="box"] ;
198 -> 199 ;
200 [label="entropy = 0.3518\nsamples = 166\nvalue = [ 155.   11.]", shape="box"] ;
198 -> 200 ;
201 [label="age <= 0.3155\nentropy = 0.30086821116\nsamples = 580", shape="box"] ;
195 -> 201 ;
202 [label="entropy = 0.2799\nsamples = 165\nvalue = [ 157.    8.]", shape="box"] ;
201 -> 202 ;
203 [label="age <= 0.3252\nentropy = 0.308995998807\nsamples = 415", shape="box"] ;
201 -> 203 ;
204 [label="entropy = 0.3014\nsamples = 224\nvalue = [ 212.   12.]", shape="box"] ;
203 -> 204 ;
205 [label="entropy = 0.3178\nsamples = 191\nvalue = [ 180.   11.]", shape="box"] ;
203 -> 205 ;
206 [label="entropy = 0.3882\nsamples = 184\nvalue = [ 170.   14.]", shape="box"] ;
194 -> 206 ;
207 [label="entropy = 0.2933\nsamples = 213\nvalue = [ 202.   11.]", shape="box"] ;
193 -> 207 ;
208 [label="age <= 0.4903\nentropy = 0.216732238906\nsamples = 6425", shape="box"] ;
180 -> 208 ;
209 [label="age <= 0.3738\nentropy = 0.239615157433\nsamples = 3983", shape="box"] ;
208 -> 209 ;
210 [label="age <= 0.3641\nentropy = 0.183427070404\nsamples = 467", shape="box"] ;
209 -> 210 ;
211 [label="entropy = 0.2178\nsamples = 230\nvalue = [ 222.    8.]", shape="box"] ;
210 -> 211 ;
212 [label="entropy = 0.1476\nsamples = 237\nvalue = [ 232.    5.]", shape="box"] ;
210 -> 212 ;
213 [label="age <= 0.4126\nentropy = 0.246656697457\nsamples = 3516", shape="box"] ;
209 -> 213 ;
214 [label="age <= 0.3835\nentropy = 0.27053558669\nsamples = 950", shape="box"] ;
213 -> 214 ;
215 [label="entropy = 0.2984\nsamples = 227\nvalue = [ 215.   12.]", shape="box"] ;
214 -> 215 ;
216 [label="age <= 0.4029\nentropy = 0.261494363689\nsamples = 723", shape="box"] ;
214 -> 216 ;
217 [label="age <= 0.3932\nentropy = 0.253878440298\nsamples = 517", shape="box"] ;
216 -> 217 ;
218 [label="entropy = 0.2525\nsamples = 284\nvalue = [ 272.   12.]", shape="box"] ;
217 -> 218 ;
219 [label="entropy = 0.2555\nsamples = 233\nvalue = [ 223.   10.]", shape="box"] ;
217 -> 219 ;
220 [label="entropy = 0.2802\nsamples = 206\nvalue = [ 196.   10.]", shape="box"] ;
216 -> 220 ;
221 [label="age <= 0.4223\nentropy = 0.237554952707\nsamples = 2566", shape="box"] ;
213 -> 221 ;
222 [label="entropy = 0.1608\nsamples = 255\nvalue = [ 249.    6.]", shape="box"] ;
221 -> 222 ;
223 [label="age <= 0.4612\nentropy = 0.245378673547\nsamples = 2311", shape="box"] ;
221 -> 223 ;
224 [label="age <= 0.4320\nentropy = 0.2306102485\nsamples = 1174", shape="box"] ;
223 -> 224 ;
225 [label="entropy = 0.2229\nsamples = 279\nvalue = [ 269.   10.]", shape="box"] ;
224 -> 225 ;
226 [label="age <= 0.4515\nentropy = 0.2329938011\nsamples = 895", shape="box"] ;
224 -> 226 ;
227 [label="age <= 0.4417\nentropy = 0.236093203361\nsamples = 595", shape="box"] ;
226 -> 227 ;
228 [label="entropy = 0.2325\nsamples = 264\nvalue = [ 254.   10.]", shape="box"] ;
227 -> 228 ;
229 [label="entropy = 0.2390\nsamples = 331\nvalue = [ 318.   13.]", shape="box"] ;
227 -> 229 ;
230 [label="entropy = 0.2268\nsamples = 300\nvalue = [ 289.   11.]", shape="box"] ;
226 -> 230 ;
231 [label="age <= 0.4806\nentropy = 0.260231238898\nsamples = 1137", shape="box"] ;
223 -> 231 ;
232 [label="age <= 0.4709\nentropy = 0.278947768955\nsamples = 746", shape="box"] ;
231 -> 232 ;
233 [label="entropy = 0.2869\nsamples = 399\nvalue = [ 379.   20.]", shape="box"] ;
232 -> 233 ;
234 [label="entropy = 0.2696\nsamples = 347\nvalue = [ 331.   16.]", shape="box"] ;
232 -> 234 ;
235 [label="entropy = 0.2227\nsamples = 391\nvalue = [ 377.   14.]", shape="box"] ;
231 -> 235 ;
236 [label="age <= 0.5291\nentropy = 0.177134357802\nsamples = 2442", shape="box"] ;
208 -> 236 ;
237 [label="age <= 0.5000\nentropy = 0.190812099512\nsamples = 1434", shape="box"] ;
236 -> 237 ;
238 [label="entropy = 0.1654\nsamples = 328\nvalue = [ 320.    8.]", shape="box"] ;
237 -> 238 ;
239 [label="age <= 0.5194\nentropy = 0.198096476046\nsamples = 1106", shape="box"] ;
237 -> 239 ;
240 [label="age <= 0.5097\nentropy = 0.191018658035\nsamples = 716", shape="box"] ;
239 -> 240 ;
241 [label="entropy = 0.1972\nsamples = 360\nvalue = [ 349.   11.]", shape="box"] ;
240 -> 241 ;
242 [label="entropy = 0.1847\nsamples = 356\nvalue = [ 346.   10.]", shape="box"] ;
240 -> 242 ;
243 [label="entropy = 0.2108\nsamples = 390\nvalue = [ 377.   13.]", shape="box"] ;
239 -> 243 ;
244 [label="age <= 0.5485\nentropy = 0.156980180823\nsamples = 1008", shape="box"] ;
236 -> 244 ;
245 [label="age <= 0.5388\nentropy = 0.123644718522\nsamples = 651", shape="box"] ;
244 -> 245 ;
246 [label="entropy = 0.1158\nsamples = 321\nvalue = [ 316.    5.]", shape="box"] ;
245 -> 246 ;
247 [label="entropy = 0.1311\nsamples = 330\nvalue = [ 324.    6.]", shape="box"] ;
245 -> 247 ;
248 [label="entropy = 0.2122\nsamples = 357\nvalue = [ 345.   12.]", shape="box"] ;
244 -> 248 ;
249 [label="age <= 0.3835\nentropy = 0.238470691882\nsamples = 8042", shape="box"] ;
179 -> 249 ;
250 [label="age <= 0.3155\nentropy = 0.325347062152\nsamples = 2085", shape="box"] ;
249 -> 250 ;
251 [label="age <= 0.2670\nentropy = 0.390686214417\nsamples = 495", shape="box"] ;
250 -> 251 ;
252 [label="entropy = 0.4587\nsamples = 62\nvalue = [ 56.   6.]", shape="box"] ;
251 -> 252 ;
253 [label="age <= 0.2961\nentropy = 0.380322916786\nsamples = 433", shape="box"] ;
251 -> 253 ;
254 [label="age <= 0.2767\nentropy = 0.394094811122\nsamples = 193", shape="box"] ;
253 -> 254 ;
255 [label="entropy = 0.3478\nsamples = 46\nvalue = [ 43.   3.]", shape="box"] ;
254 -> 255 ;
256 [label="age <= 0.2864\nentropy = 0.407905980139\nsamples = 147", shape="box"] ;
254 -> 256 ;
257 [label="entropy = 0.3912\nsamples = 65\nvalue = [ 60.   5.]", shape="box"] ;
256 -> 257 ;
258 [label="entropy = 0.4208\nsamples = 82\nvalue = [ 75.   7.]", shape="box"] ;
256 -> 258 ;
259 [label="age <= 0.3058\nentropy = 0.369025820677\nsamples = 240", shape="box"] ;
253 -> 259 ;
260 [label="entropy = 0.3440\nsamples = 109\nvalue = [ 102.    7.]", shape="box"] ;
259 -> 260 ;
261 [label="entropy = 0.3891\nsamples = 131\nvalue = [ 121.   10.]", shape="box"] ;
259 -> 261 ;
262 [label="age <= 0.3544\nentropy = 0.303515199966\nsamples = 1590", shape="box"] ;
250 -> 262 ;
263 [label="age <= 0.3447\nentropy = 0.282806400695\nsamples = 712", shape="box"] ;
262 -> 263 ;
264 [label="age <= 0.3252\nentropy = 0.303151590366\nsamples = 500", shape="box"] ;
263 -> 264 ;
265 [label="entropy = 0.2776\nsamples = 146\nvalue = [ 139.    7.]", shape="box"] ;
264 -> 265 ;
266 [label="age <= 0.3350\nentropy = 0.313380138829\nsamples = 354", shape="box"] ;
264 -> 266 ;
267 [label="entropy = 0.3200\nsamples = 172\nvalue = [ 162.   10.]", shape="box"] ;
266 -> 267 ;
268 [label="entropy = 0.3070\nsamples = 182\nvalue = [ 172.   10.]", shape="box"] ;
266 -> 268 ;
269 [label="entropy = 0.2318\nsamples = 212\nvalue = [ 204.    8.]", shape="box"] ;
263 -> 269 ;
270 [label="age <= 0.3641\nentropy = 0.319801978288\nsamples = 878", shape="box"] ;
262 -> 270 ;
271 [label="entropy = 0.3485\nsamples = 260\nvalue = [ 243.   17.]", shape="box"] ;
270 -> 271 ;
272 [label="age <= 0.3738\nentropy = 0.307334744752\nsamples = 618", shape="box"] ;
270 -> 272 ;
273 [label="entropy = 0.3141\nsamples = 300\nvalue = [ 283.   17.]", shape="box"] ;
272 -> 273 ;
274 [label="entropy = 0.3009\nsamples = 318\nvalue = [ 301.   17.]", shape="box"] ;
272 -> 274 ;
275 [label="age <= 0.4612\nentropy = 0.204635052088\nsamples = 5957", shape="box"] ;
249 -> 275 ;
276 [label="age <= 0.4515\nentropy = 0.226896514409\nsamples = 3080", shape="box"] ;
275 -> 276 ;
277 [label="age <= 0.4126\nentropy = 0.218195756432\nsamples = 2668", shape="box"] ;
276 -> 277 ;
278 [label="age <= 0.4029\nentropy = 0.238347094901\nsamples = 1073", shape="box"] ;
277 -> 278 ;
279 [label="age <= 0.3932\nentropy = 0.206037569276\nsamples = 711", shape="box"] ;
278 -> 279 ;
280 [label="entropy = 0.2113\nsamples = 359\nvalue = [ 347.   12.]", shape="box"] ;
279 -> 280 ;
281 [label="entropy = 0.2006\nsamples = 352\nvalue = [ 341.   11.]", shape="box"] ;
279 -> 281 ;
282 [label="entropy = 0.2969\nsamples = 362\nvalue = [ 343.   19.]", shape="box"] ;
278 -> 282 ;
283 [label="age <= 0.4417\nentropy = 0.204201299259\nsamples = 1595", shape="box"] ;
277 -> 283 ;
284 [label="age <= 0.4320\nentropy = 0.192942347411\nsamples = 1178", shape="box"] ;
283 -> 284 ;
285 [label="age <= 0.4223\nentropy = 0.200816053378\nsamples = 799", shape="box"] ;
284 -> 285 ;
286 [label="entropy = 0.2010\nsamples = 383\nvalue = [ 371.   12.]", shape="box"] ;
285 -> 286 ;
287 [label="entropy = 0.2006\nsamples = 416\nvalue = [ 403.   13.]", shape="box"] ;
285 -> 287 ;
288 [label="entropy = 0.1759\nsamples = 379\nvalue = [ 369.   10.]", shape="box"] ;
284 -> 288 ;
289 [label="entropy = 0.2348\nsamples = 417\nvalue = [ 401.   16.]", shape="box"] ;
283 -> 289 ;
290 [label="entropy = 0.2802\nsamples = 412\nvalue = [ 392.   20.]", shape="box"] ;
276 -> 290 ;
291 [label="age <= 0.4903\nentropy = 0.179692975429\nsamples = 2877", shape="box"] ;
275 -> 291 ;
292 [label="age <= 0.4709\nentropy = 0.155522779698\nsamples = 1020", shape="box"] ;
291 -> 292 ;
293 [label="entropy = 0.1938\nsamples = 368\nvalue = [ 357.   11.]", shape="box"] ;
292 -> 293 ;
294 [label="age <= 0.4806\nentropy = 0.132388383163\nsamples = 652", shape="box"] ;
292 -> 294 ;
295 [label="entropy = 0.1245\nsamples = 352\nvalue = [ 346.    6.]", shape="box"] ;
294 -> 295 ;
296 [label="entropy = 0.1414\nsamples = 300\nvalue = [ 294.    6.]", shape="box"] ;
294 -> 296 ;
297 [label="age <= 0.5000\nentropy = 0.192470817598\nsamples = 1857", shape="box"] ;
291 -> 297 ;
298 [label="entropy = 0.2261\nsamples = 356\nvalue = [ 343.   13.]", shape="box"] ;
297 -> 298 ;
299 [label="age <= 0.5485\nentropy = 0.184165121881\nsamples = 1501", shape="box"] ;
297 -> 299 ;
300 [label="age <= 0.5388\nentropy = 0.189390512736\nsamples = 1310", shape="box"] ;
299 -> 300 ;
301 [label="age <= 0.5291\nentropy = 0.182106928707\nsamples = 1124", shape="box"] ;
300 -> 301 ;
302 [label="age <= 0.5097\nentropy = 0.193229401543\nsamples = 907", shape="box"] ;
301 -> 302 ;
303 [label="entropy = 0.1650\nsamples = 329\nvalue = [ 321.    8.]", shape="box"] ;
302 -> 303 ;
304 [label="age <= 0.5194\nentropy = 0.208596230814\nsamples = 578", shape="box"] ;
302 -> 304 ;
305 [label="entropy = 0.2001\nsamples = 321\nvalue = [ 311.   10.]", shape="box"] ;
304 -> 305 ;
306 [label="entropy = 0.2190\nsamples = 257\nvalue = [ 248.    9.]", shape="box"] ;
304 -> 306 ;
307 [label="entropy = 0.1326\nsamples = 217\nvalue = [ 213.    4.]", shape="box"] ;
301 -> 307 ;
308 [label="entropy = 0.2313\nsamples = 186\nvalue = [ 179.    7.]", shape="box"] ;
300 -> 308 ;
309 [label="entropy = 0.1467\nsamples = 191\nvalue = [ 187.    4.]", shape="box"] ;
299 -> 309 ;
310 [label="NumberOfDependents <= 0.1750\nentropy = 0.226568185392\nsamples = 5489", shape="box"] ;
178 -> 310 ;
311 [label="age <= 0.4029\nentropy = 0.223265050953\nsamples = 3981", shape="box"] ;
310 -> 311 ;
312 [label="age <= 0.2864\nentropy = 0.284888685904\nsamples = 1269", shape="box"] ;
311 -> 312 ;
313 [label="entropy = 0.5328\nsamples = 66\nvalue = [ 58.   8.]", shape="box"] ;
312 -> 313 ;
314 [label="age <= 0.3544\nentropy = 0.267925552224\nsamples = 1203", shape="box"] ;
312 -> 314 ;
315 [label="age <= 0.3447\nentropy = 0.24942126963\nsamples = 409", shape="box"] ;
314 -> 315 ;
316 [label="age <= 0.2961\nentropy = 0.262311219614\nsamples = 315", shape="box"] ;
315 -> 316 ;
317 [label="entropy = 0.2285\nsamples = 27\nvalue = [ 26.   1.]", shape="box"] ;
316 -> 317 ;
318 [label="age <= 0.3350\nentropy = 0.265376863772\nsamples = 288", shape="box"] ;
316 -> 318 ;
319 [label="age <= 0.3155\nentropy = 0.260862909647\nsamples = 204", shape="box"] ;
318 -> 319 ;
320 [label="entropy = 0.2738\nsamples = 85\nvalue = [ 81.   4.]", shape="box"] ;
319 -> 320 ;
321 [label="age <= 0.3252\nentropy = 0.251463964239\nsamples = 119", shape="box"] ;
319 -> 321 ;
322 [label="entropy = 0.2387\nsamples = 51\nvalue = [ 49.   2.]", shape="box"] ;
321 -> 322 ;
323 [label="entropy = 0.2609\nsamples = 68\nvalue = [ 65.   3.]", shape="box"] ;
321 -> 323 ;
324 [label="entropy = 0.2762\nsamples = 84\nvalue = [ 80.   4.]", shape="box"] ;
318 -> 324 ;
325 [label="entropy = 0.2039\nsamples = 94\nvalue = [ 91.   3.]", shape="box"] ;
315 -> 325 ;
326 [label="age <= 0.3738\nentropy = 0.277231320289\nsamples = 794", shape="box"] ;
314 -> 326 ;
327 [label="age <= 0.3641\nentropy = 0.321837152478\nsamples = 256", shape="box"] ;
326 -> 327 ;
328 [label="entropy = 0.3412\nsamples = 126\nvalue = [ 118.    8.]", shape="box"] ;
327 -> 328 ;
329 [label="entropy = 0.3025\nsamples = 130\nvalue = [ 123.    7.]", shape="box"] ;
327 -> 329 ;
330 [label="age <= 0.3932\nentropy = 0.25476595855\nsamples = 538", shape="box"] ;
326 -> 330 ;
331 [label="age <= 0.3835\nentropy = 0.231557457338\nsamples = 345", shape="box"] ;
330 -> 331 ;
332 [label="entropy = 0.2392\nsamples = 178\nvalue = [ 171.    7.]", shape="box"] ;
331 -> 332 ;
333 [label="entropy = 0.2233\nsamples = 167\nvalue = [ 161.    6.]", shape="box"] ;
331 -> 333 ;
334 [label="entropy = 0.2941\nsamples = 193\nvalue = [ 183.   10.]", shape="box"] ;
330 -> 334 ;
335 [label="age <= 0.4903\nentropy = 0.191870718276\nsamples = 2712", shape="box"] ;
311 -> 335 ;
336 [label="age <= 0.4612\nentropy = 0.172904304383\nsamples = 1860", shape="box"] ;
335 -> 336 ;
337 [label="age <= 0.4515\nentropy = 0.191893803621\nsamples = 1288", shape="box"] ;
336 -> 337 ;
338 [label="age <= 0.4417\nentropy = 0.183784321174\nsamples = 1075", shape="box"] ;
337 -> 338 ;
339 [label="age <= 0.4320\nentropy = 0.195909270874\nsamples = 825", shape="box"] ;
338 -> 339 ;
340 [label="age <= 0.4223\nentropy = 0.18335520475\nsamples = 611", shape="box"] ;
339 -> 340 ;
341 [label="age <= 0.4126\nentropy = 0.208383036208\nsamples = 396", shape="box"] ;
340 -> 341 ;
342 [label="entropy = 0.2006\nsamples = 192\nvalue = [ 186.    6.]", shape="box"] ;
341 -> 342 ;
343 [label="entropy = 0.2156\nsamples = 204\nvalue = [ 197.    7.]", shape="box"] ;
341 -> 343 ;
344 [label="entropy = 0.1335\nsamples = 215\nvalue = [ 211.    4.]", shape="box"] ;
340 -> 344 ;
345 [label="entropy = 0.2302\nsamples = 214\nvalue = [ 206.    8.]", shape="box"] ;
339 -> 345 ;
346 [label="entropy = 0.1414\nsamples = 250\nvalue = [ 245.    5.]", shape="box"] ;
338 -> 346 ;
347 [label="entropy = 0.2310\nsamples = 213\nvalue = [ 205.    8.]", shape="box"] ;
337 -> 347 ;
348 [label="age <= 0.4806\nentropy = 0.127062118399\nsamples = 572", shape="box"] ;
336 -> 348 ;
349 [label="age <= 0.4709\nentropy = 0.140327270991\nsamples = 404", shape="box"] ;
348 -> 349 ;
350 [label="entropy = 0.1398\nsamples = 203\nvalue = [ 199.    4.]", shape="box"] ;
349 -> 350 ;
351 [label="entropy = 0.1409\nsamples = 201\nvalue = [ 197.    4.]", shape="box"] ;
349 -> 351 ;
352 [label="entropy = 0.0932\nsamples = 168\nvalue = [ 166.    2.]", shape="box"] ;
348 -> 352 ;
353 [label="age <= 0.5097\nentropy = 0.230984641829\nsamples = 852", shape="box"] ;
335 -> 353 ;
354 [label="age <= 0.5000\nentropy = 0.280558062216\nsamples = 329", shape="box"] ;
353 -> 354 ;
355 [label="entropy = 0.2634\nsamples = 179\nvalue = [ 171.    8.]", shape="box"] ;
354 -> 355 ;
356 [label="entropy = 0.3004\nsamples = 150\nvalue = [ 142.    8.]", shape="box"] ;
354 -> 356 ;
357 [label="age <= 0.5194\nentropy = 0.197355736513\nsamples = 523", shape="box"] ;
353 -> 357 ;
358 [label="entropy = 0.1556\nsamples = 133\nvalue = [ 130.    3.]", shape="box"] ;
357 -> 358 ;
359 [label="age <= 0.5388\nentropy = 0.210842300319\nsamples = 390", shape="box"] ;
357 -> 359 ;
360 [label="age <= 0.5291\nentropy = 0.223812555135\nsamples = 222", shape="box"] ;
359 -> 360 ;
361 [label="entropy = 0.2122\nsamples = 119\nvalue = [ 115.    4.]", shape="box"] ;
360 -> 361 ;
362 [label="entropy = 0.2369\nsamples = 103\nvalue = [ 99.   4.]", shape="box"] ;
360 -> 362 ;
363 [label="age <= 0.5485\nentropy = 0.193196413171\nsamples = 168", shape="box"] ;
359 -> 363 ;
364 [label="entropy = 0.1579\nsamples = 87\nvalue = [ 85.   2.]", shape="box"] ;
363 -> 364 ;
365 [label="entropy = 0.2285\nsamples = 81\nvalue = [ 78.   3.]", shape="box"] ;
363 -> 365 ;
366 [label="age <= 0.3350\nentropy = 0.235193381819\nsamples = 1508", shape="box"] ;
310 -> 366 ;
367 [label="NumberOfDependents <= 0.2250\nentropy = 0.580597096141\nsamples = 101", shape="box"] ;
366 -> 367 ;
368 [label="entropy = 0.5146\nsamples = 87\nvalue = [ 77.  10.]", shape="box"] ;
367 -> 368 ;
369 [label="entropy = 0.8631\nsamples = 14\nvalue = [ 10.   4.]", shape="box"] ;
367 -> 369 ;
370 [label="NumberOfDependents <= 0.2250\nentropy = 0.200732347127\nsamples = 1407", shape="box"] ;
366 -> 370 ;
371 [label="age <= 0.5291\nentropy = 0.214460662776\nsamples = 1115", shape="box"] ;
370 -> 371 ;
372 [label="age <= 0.5097\nentropy = 0.225199250588\nsamples = 1046", shape="box"] ;
371 -> 372 ;
373 [label="age <= 0.5000\nentropy = 0.208017064601\nsamples = 977", shape="box"] ;
372 -> 373 ;
374 [label="age <= 0.4320\nentropy = 0.215330957936\nsamples = 934", shape="box"] ;
373 -> 374 ;
375 [label="age <= 0.4223\nentropy = 0.254285848344\nsamples = 469", shape="box"] ;
374 -> 375 ;
376 [label="age <= 0.3544\nentropy = 0.224740366951\nsamples = 414", shape="box"] ;
375 -> 376 ;
377 [label="entropy = 0.3478\nsamples = 46\nvalue = [ 43.   3.]", shape="box"] ;
376 -> 377 ;
378 [label="age <= 0.3932\nentropy = 0.207310185859\nsamples = 368", shape="box"] ;
376 -> 378 ;
379 [label="age <= 0.3835\nentropy = 0.18233425529\nsamples = 181", shape="box"] ;
378 -> 379 ;
380 [label="age <= 0.3738\nentropy = 0.191433254814\nsamples = 136", shape="box"] ;
379 -> 380 ;
381 [label="entropy = 0.1654\nsamples = 82\nvalue = [ 80.   2.]", shape="box"] ;
380 -> 381 ;
382 [label="entropy = 0.2285\nsamples = 54\nvalue = [ 52.   2.]", shape="box"] ;
380 -> 382 ;
383 [label="entropy = 0.1537\nsamples = 45\nvalue = [ 44.   1.]", shape="box"] ;
379 -> 383 ;
384 [label="age <= 0.4126\nentropy = 0.230396910188\nsamples = 187", shape="box"] ;
378 -> 384 ;
385 [label="age <= 0.4029\nentropy = 0.249882292833\nsamples = 120", shape="box"] ;
384 -> 385 ;
386 [label="entropy = 0.2352\nsamples = 52\nvalue = [ 50.   2.]", shape="box"] ;
385 -> 386 ;
387 [label="entropy = 0.2609\nsamples = 68\nvalue = [ 65.   3.]", shape="box"] ;
385 -> 387 ;
388 [label="entropy = 0.1936\nsamples = 67\nvalue = [ 65.   2.]", shape="box"] ;
384 -> 388 ;
389 [label="entropy = 0.4395\nsamples = 55\nvalue = [ 50.   5.]", shape="box"] ;
375 -> 389 ;
390 [label="age <= 0.4515\nentropy = 0.172904304383\nsamples = 465", shape="box"] ;
374 -> 390 ;
391 [label="age <= 0.4417\nentropy = 0.142955355127\nsamples = 148", shape="box"] ;
390 -> 391 ;
392 [label="entropy = 0.1703\nsamples = 79\nvalue = [ 77.   2.]", shape="box"] ;
391 -> 392 ;
393 [label="entropy = 0.1093\nsamples = 69\nvalue = [ 68.   1.]", shape="box"] ;
391 -> 393 ;
394 [label="age <= 0.4612\nentropy = 0.186258337562\nsamples = 317", shape="box"] ;
390 -> 394 ;
395 [label="entropy = 0.2580\nsamples = 69\nvalue = [ 66.   3.]", shape="box"] ;
394 -> 395 ;
396 [label="age <= 0.4903\nentropy = 0.164379058674\nsamples = 248", shape="box"] ;
394 -> 396 ;
397 [label="age <= 0.4709\nentropy = 0.14731066693\nsamples = 190", shape="box"] ;
396 -> 397 ;
398 [label="entropy = 0.1720\nsamples = 78\nvalue = [ 76.   2.]", shape="box"] ;
397 -> 398 ;
399 [label="age <= 0.4806\nentropy = 0.129233774846\nsamples = 112", shape="box"] ;
397 -> 399 ;
400 [label="entropy = 0.1350\nsamples = 53\nvalue = [ 52.   1.]", shape="box"] ;
399 -> 400 ;
401 [label="entropy = 0.1239\nsamples = 59\nvalue = [ 58.   1.]", shape="box"] ;
399 -> 401 ;
402 [label="entropy = 0.2164\nsamples = 58\nvalue = [ 56.   2.]", shape="box"] ;
396 -> 402 ;
403 [label="entropy = 0.0000\nsamples = 43\nvalue = [ 43.   0.]", shape="box"] ;
373 -> 403 ;
404 [label="entropy = 0.4262\nsamples = 69\nvalue = [ 63.   6.]", shape="box"] ;
372 -> 404 ;
405 [label="entropy = 0.0000\nsamples = 69\nvalue = [ 69.   0.]", shape="box"] ;
371 -> 405 ;
406 [label="age <= 0.4223\nentropy = 0.14450614339\nsamples = 292", shape="box"] ;
370 -> 406 ;
407 [label="age <= 0.4126\nentropy = 0.223812555135\nsamples = 111", shape="box"] ;
406 -> 407 ;
408 [label="entropy = 0.1449\nsamples = 97\nvalue = [ 95.   2.]", shape="box"] ;
407 -> 408 ;
409 [label="entropy = 0.5917\nsamples = 14\nvalue = [ 12.   2.]", shape="box"] ;
407 -> 409 ;
410 [label="age <= 0.4709\nentropy = 0.0876744830484\nsamples = 181", shape="box"] ;
406 -> 410 ;
411 [label="entropy = 0.0000\nsamples = 84\nvalue = [ 84.   0.]", shape="box"] ;
410 -> 411 ;
412 [label="entropy = 0.1449\nsamples = 97\nvalue = [ 95.   2.]", shape="box"] ;
410 -> 412 ;
413 [label="entropy = 0.4022\nsamples = 75\nvalue = [ 69.   6.]", shape="box"] ;
177 -> 413 ;
414 [label="NumberOfDependents <= 0.1750\nentropy = 0.571270667914\nsamples = 4293", shape="box"] ;
176 -> 414 ;
415 [label="NumberOfTime30-59DaysPastDueNotWorse <= 0.0153\nentropy = 0.56240985782\nsamples = 3922", shape="box"] ;
414 -> 415 ;
416 [label="age <= 0.3544\nentropy = 0.453220428654\nsamples = 2808", shape="box"] ;
415 -> 416 ;
417 [label="age <= 0.2670\nentropy = 0.588541282139\nsamples = 473", shape="box"] ;
416 -> 417 ;
418 [label="entropy = 0.7642\nsamples = 54\nvalue = [ 42.  12.]", shape="box"] ;
417 -> 418 ;
419 [label="age <= 0.2961\nentropy = 0.560897046405\nsamples = 419", shape="box"] ;
417 -> 419 ;
420 [label="entropy = 0.3712\nsamples = 84\nvalue = [ 78.   6.]", shape="box"] ;
419 -> 420 ;
421 [label="age <= 0.3350\nentropy = 0.600423301225\nsamples = 335", shape="box"] ;
419 -> 421 ;
422 [label="NumberOfDependents <= 0.0750\nentropy = 0.632401816892\nsamples = 201", shape="box"] ;
421 -> 422 ;
423 [label="age <= 0.3058\nentropy = 0.710123491265\nsamples = 103", shape="box"] ;
422 -> 423 ;
424 [label="entropy = 0.6098\nsamples = 20\nvalue = [ 17.   3.]", shape="box"] ;
423 -> 424 ;
425 [label="entropy = 0.7315\nsamples = 83\nvalue = [ 66.  17.]", shape="box"] ;
423 -> 425 ;
426 [label="entropy = 0.5364\nsamples = 98\nvalue = [ 86.  12.]", shape="box"] ;
422 -> 426 ;
427 [label="age <= 0.3447\nentropy = 0.548779186782\nsamples = 134", shape="box"] ;
421 -> 427 ;
428 [label="entropy = 0.5491\nsamples = 63\nvalue = [ 55.   8.]", shape="box"] ;
427 -> 428 ;
429 [label="entropy = 0.5485\nsamples = 71\nvalue = [ 62.   9.]", shape="box"] ;
427 -> 429 ;
430 [label="age <= 0.4223\nentropy = 0.421791547732\nsamples = 2335", shape="box"] ;
416 -> 430 ;
431 [label="NumberOfDependents <= 0.1250\nentropy = 0.456852082043\nsamples = 738", shape="box"] ;
430 -> 431 ;
432 [label="NumberOfDependents <= 0.0750\nentropy = 0.420582269964\nsamples = 551", shape="box"] ;
431 -> 432 ;
433 [label="age <= 0.3641\nentropy = 0.448429096701\nsamples = 235", shape="box"] ;
432 -> 433 ;
434 [label="entropy = 0.3451\nsamples = 31\nvalue = [ 29.   2.]", shape="box"] ;
433 -> 434 ;
435 [label="age <= 0.3835\nentropy = 0.462749058578\nsamples = 204", shape="box"] ;
433 -> 435 ;
436 [label="entropy = 0.5127\nsamples = 70\nvalue = [ 62.   8.]", shape="box"] ;
435 -> 436 ;
437 [label="age <= 0.3932\nentropy = 0.434973480075\nsamples = 134", shape="box"] ;
435 -> 437 ;
438 [label="entropy = 0.2352\nsamples = 26\nvalue = [ 25.   1.]", shape="box"] ;
437 -> 438 ;
439 [label="age <= 0.4126\nentropy = 0.474838488301\nsamples = 108", shape="box"] ;
437 -> 439 ;
440 [label="entropy = 0.4475\nsamples = 75\nvalue = [ 68.   7.]", shape="box"] ;
439 -> 440 ;
441 [label="entropy = 0.5328\nsamples = 33\nvalue = [ 29.   4.]", shape="box"] ;
439 -> 441 ;
442 [label="age <= 0.3641\nentropy = 0.399049325612\nsamples = 316", shape="box"] ;
432 -> 442 ;
443 [label="entropy = 0.5108\nsamples = 44\nvalue = [ 39.   5.]", shape="box"] ;
442 -> 443 ;
444 [label="age <= 0.4126\nentropy = 0.378958787501\nsamples = 272", shape="box"] ;
442 -> 444 ;
445 [label="age <= 0.3932\nentropy = 0.360275056422\nsamples = 219", shape="box"] ;
444 -> 445 ;
446 [label="age <= 0.3738\nentropy = 0.404448386486\nsamples = 124", shape="box"] ;
445 -> 446 ;
447 [label="entropy = 0.3621\nsamples = 29\nvalue = [ 27.   2.]", shape="box"] ;
446 -> 447 ;
448 [label="entropy = 0.4168\nsamples = 95\nvalue = [ 87.   8.]", shape="box"] ;
446 -> 448 ;
449 [label="entropy = 0.2975\nsamples = 95\nvalue = [ 90.   5.]", shape="box"] ;
445 -> 449 ;
450 [label="entropy = 0.4508\nsamples = 53\nvalue = [ 48.   5.]", shape="box"] ;
444 -> 450 ;
451 [label="age <= 0.3932\nentropy = 0.552874197016\nsamples = 187", shape="box"] ;
431 -> 451 ;
452 [label="entropy = 0.4722\nsamples = 99\nvalue = [ 89.  10.]", shape="box"] ;
451 -> 452 ;
453 [label="entropy = 0.6321\nsamples = 88\nvalue = [ 74.  14.]", shape="box"] ;
451 -> 453 ;
454 [label="age <= 0.5485\nentropy = 0.404909189068\nsamples = 1597", shape="box"] ;
430 -> 454 ;
455 [label="age <= 0.5097\nentropy = 0.398150147642\nsamples = 1509", shape="box"] ;
454 -> 455 ;
456 [label="age <= 0.5000\nentropy = 0.411739449025\nsamples = 1112", shape="box"] ;
455 -> 456 ;
457 [label="NumberOfDependents <= 0.1250\nentropy = 0.398275279725\nsamples = 1014", shape="box"] ;
456 -> 457 ;
458 [label="NumberOfDependents <= 0.0750\nentropy = 0.390537885352\nsamples = 782", shape="box"] ;
457 -> 458 ;
459 [label="age <= 0.4320\nentropy = 0.410416141718\nsamples = 340", shape="box"] ;
458 -> 459 ;
460 [label="entropy = 0.1872\nsamples = 35\nvalue = [ 34.   1.]", shape="box"] ;
459 -> 460 ;
461 [label="age <= 0.4709\nentropy = 0.43152582335\nsamples = 305", shape="box"] ;
459 -> 461 ;
462 [label="age <= 0.4417\nentropy = 0.474664341123\nsamples = 167", shape="box"] ;
461 -> 462 ;
463 [label="entropy = 0.5436\nsamples = 40\nvalue = [ 35.   5.]", shape="box"] ;
462 -> 463 ;
464 [label="age <= 0.4612\nentropy = 0.451275979156\nsamples = 127", shape="box"] ;
462 -> 464 ;
465 [label="entropy = 0.4281\nsamples = 80\nvalue = [ 73.   7.]", shape="box"] ;
464 -> 465 ;
466 [label="entropy = 0.4889\nsamples = 47\nvalue = [ 42.   5.]", shape="box"] ;
464 -> 466 ;
467 [label="age <= 0.4806\nentropy = 0.375051406424\nsamples = 138", shape="box"] ;
461 -> 467 ;
468 [label="entropy = 0.3323\nsamples = 49\nvalue = [ 46.   3.]", shape="box"] ;
467 -> 468 ;
469 [label="entropy = 0.3974\nsamples = 89\nvalue = [ 82.   7.]", shape="box"] ;
467 -> 469 ;
470 [label="age <= 0.4320\nentropy = 0.374810159398\nsamples = 442", shape="box"] ;
458 -> 470 ;
471 [label="entropy = 0.5374\nsamples = 57\nvalue = [ 50.   7.]", shape="box"] ;
470 -> 471 ;
472 [label="age <= 0.4709\nentropy = 0.34673146825\nsamples = 385", shape="box"] ;
470 -> 472 ;
473 [label="age <= 0.4515\nentropy = 0.325551713488\nsamples = 252", shape="box"] ;
472 -> 473 ;
474 [label="age <= 0.4417\nentropy = 0.359101625649\nsamples = 132", shape="box"] ;
473 -> 474 ;
475 [label="entropy = 0.3373\nsamples = 64\nvalue = [ 60.   4.]", shape="box"] ;
474 -> 475 ;
476 [label="entropy = 0.3790\nsamples = 68\nvalue = [ 63.   5.]", shape="box"] ;
474 -> 476 ;
477 [label="age <= 0.4612\nentropy = 0.286396957116\nsamples = 120", shape="box"] ;
473 -> 477 ;
478 [label="entropy = 0.2285\nsamples = 54\nvalue = [ 52.   2.]", shape="box"] ;
477 -> 478 ;
479 [label="entropy = 0.3298\nsamples = 66\nvalue = [ 62.   4.]", shape="box"] ;
477 -> 479 ;
480 [label="age <= 0.4806\nentropy = 0.384992472301\nsamples = 133", shape="box"] ;
472 -> 480 ;
481 [label="entropy = 0.4754\nsamples = 49\nvalue = [ 44.   5.]", shape="box"] ;
480 -> 481 ;
482 [label="entropy = 0.3256\nsamples = 84\nvalue = [ 79.   5.]", shape="box"] ;
480 -> 482 ;
483 [label="age <= 0.4417\nentropy = 0.423680571571\nsamples = 232", shape="box"] ;
457 -> 483 ;
484 [label="entropy = 0.3492\nsamples = 61\nvalue = [ 57.   4.]", shape="box"] ;
483 -> 484 ;
485 [label="age <= 0.4806\nentropy = 0.448266065661\nsamples = 171", shape="box"] ;
483 -> 485 ;
486 [label="age <= 0.4709\nentropy = 0.476439191098\nsamples = 127", shape="box"] ;
485 -> 486 ;
487 [label="age <= 0.4612\nentropy = 0.436469817064\nsamples = 100", shape="box"] ;
486 -> 487 ;
488 [label="entropy = 0.4730\nsamples = 79\nvalue = [ 71.   8.]", shape="box"] ;
487 -> 488 ;
489 [label="entropy = 0.2762\nsamples = 21\nvalue = [ 20.   1.]", shape="box"] ;
487 -> 489 ;
490 [label="entropy = 0.6052\nsamples = 27\nvalue = [ 23.   4.]", shape="box"] ;
486 -> 490 ;
491 [label="entropy = 0.3591\nsamples = 44\nvalue = [ 41.   3.]", shape="box"] ;
485 -> 491 ;
492 [label="entropy = 0.5364\nsamples = 98\nvalue = [ 86.  12.]", shape="box"] ;
456 -> 492 ;
493 [label="NumberOfDependents <= 0.1250\nentropy = 0.358453376112\nsamples = 397", shape="box"] ;
455 -> 493 ;
494 [label="NumberOfDependents <= 0.0750\nentropy = 0.330192285582\nsamples = 346", shape="box"] ;
493 -> 494 ;
495 [label="age <= 0.5388\nentropy = 0.413816850304\nsamples = 204", shape="box"] ;
494 -> 495 ;
496 [label="age <= 0.5194\nentropy = 0.458685816201\nsamples = 155", shape="box"] ;
495 -> 496 ;
497 [label="entropy = 0.2795\nsamples = 62\nvalue = [ 59.   3.]", shape="box"] ;
496 -> 497 ;
498 [label="entropy = 0.5548\nsamples = 93\nvalue = [ 81.  12.]", shape="box"] ;
496 -> 498 ;
499 [label="entropy = 0.2460\nsamples = 49\nvalue = [ 47.   2.]", shape="box"] ;
495 -> 499 ;
500 [label="age <= 0.5388\nentropy = 0.185124760101\nsamples = 142", shape="box"] ;
494 -> 500 ;
501 [label="age <= 0.5291\nentropy = 0.127418511792\nsamples = 114", shape="box"] ;
500 -> 501 ;
502 [label="entropy = 0.1720\nsamples = 78\nvalue = [ 76.   2.]", shape="box"] ;
501 -> 502 ;
503 [label="entropy = 0.0000\nsamples = 36\nvalue = [ 36.   0.]", shape="box"] ;
501 -> 503 ;
504 [label="entropy = 0.3712\nsamples = 28\nvalue = [ 26.   2.]", shape="box"] ;
500 -> 504 ;
505 [label="entropy = 0.5226\nsamples = 51\nvalue = [ 45.   6.]", shape="box"] ;
493 -> 505 ;
506 [label="entropy = 0.5108\nsamples = 88\nvalue = [ 78.  10.]", shape="box"] ;
454 -> 506 ;
507 [label="NumberOfTime30-59DaysPastDueNotWorse <= 0.0255\nentropy = 0.768150327901\nsamples = 1114", shape="box"] ;
415 -> 507 ;
508 [label="NumberOfDependents <= 0.0750\nentropy = 0.720241869443\nsamples = 713", shape="box"] ;
507 -> 508 ;
509 [label="age <= 0.4903\nentropy = 0.749595257259\nsamples = 280", shape="box"] ;
508 -> 509 ;
510 [label="age <= 0.3252\nentropy = 0.811278124459\nsamples = 196", shape="box"] ;
509 -> 510 ;
511 [label="entropy = 0.9367\nsamples = 34\nvalue = [ 22.  12.]", shape="box"] ;
510 -> 511 ;
512 [label="age <= 0.3447\nentropy = 0.775203026891\nsamples = 162", shape="box"] ;
510 -> 512 ;
513 [label="entropy = 0.0000\nsamples = 13\nvalue = [ 13.   0.]", shape="box"] ;
512 -> 513 ;
514 [label="age <= 0.3738\nentropy = 0.808607944632\nsamples = 149", shape="box"] ;
512 -> 514 ;
515 [label="entropy = 0.9928\nsamples = 20\nvalue = [ 11.   9.]", shape="box"] ;
514 -> 515 ;
516 [label="age <= 0.4126\nentropy = 0.754752080419\nsamples = 129", shape="box"] ;
514 -> 516 ;
517 [label="entropy = 0.6610\nsamples = 35\nvalue = [ 29.   6.]", shape="box"] ;
516 -> 517 ;
518 [label="entropy = 0.7850\nsamples = 94\nvalue = [ 72.  22.]", shape="box"] ;
516 -> 518 ;
519 [label="entropy = 0.5600\nsamples = 84\nvalue = [ 73.  11.]", shape="box"] ;
509 -> 519 ;
520 [label="NumberOfDependents <= 0.1250\nentropy = 0.700165203859\nsamples = 433", shape="box"] ;
508 -> 520 ;
521 [label="age <= 0.4029\nentropy = 0.7137455096\nsamples = 296", shape="box"] ;
520 -> 521 ;
522 [label="age <= 0.3058\nentropy = 0.875911034978\nsamples = 115", shape="box"] ;
521 -> 522 ;
523 [label="entropy = 0.9968\nsamples = 15\nvalue = [ 8.  7.]", shape="box"] ;
522 -> 523 ;
524 [label="age <= 0.3350\nentropy = 0.841464636208\nsamples = 100", shape="box"] ;
522 -> 524 ;
525 [label="entropy = 0.4690\nsamples = 10\nvalue = [ 9.  1.]", shape="box"] ;
524 -> 525 ;
526 [label="entropy = 0.8673\nsamples = 90\nvalue = [ 64.  26.]", shape="box"] ;
524 -> 526 ;
527 [label="age <= 0.4223\nentropy = 0.564516839606\nsamples = 181", shape="box"] ;
521 -> 527 ;
528 [label="entropy = 0.2668\nsamples = 22\nvalue = [ 21.   1.]", shape="box"] ;
527 -> 528 ;
529 [label="age <= 0.4417\nentropy = 0.596298858433\nsamples = 159", shape="box"] ;
527 -> 529 ;
530 [label="entropy = 0.8631\nsamples = 28\nvalue = [ 20.   8.]", shape="box"] ;
529 -> 530 ;
531 [label="age <= 0.4515\nentropy = 0.513353120859\nsamples = 131", shape="box"] ;
529 -> 531 ;
532 [label="entropy = 0.0000\nsamples = 16\nvalue = [ 16.   0.]", shape="box"] ;
531 -> 532 ;
533 [label="age <= 0.5000\nentropy = 0.558629373452\nsamples = 115", shape="box"] ;
531 -> 533 ;
534 [label="entropy = 0.6442\nsamples = 67\nvalue = [ 56.  11.]", shape="box"] ;
533 -> 534 ;
535 [label="entropy = 0.4138\nsamples = 48\nvalue = [ 44.   4.]", shape="box"] ;
533 -> 535 ;
536 [label="age <= 0.3738\nentropy = 0.669423887557\nsamples = 137", shape="box"] ;
520 -> 536 ;
537 [label="entropy = 0.9183\nsamples = 24\nvalue = [ 16.   8.]", shape="box"] ;
536 -> 537 ;
538 [label="age <= 0.3932\nentropy = 0.588395372219\nsamples = 113", shape="box"] ;
536 -> 538 ;
539 [label="entropy = 0.0000\nsamples = 18\nvalue = [ 18.   0.]", shape="box"] ;
538 -> 539 ;
540 [label="entropy = 0.6541\nsamples = 95\nvalue = [ 79.  16.]", shape="box"] ;
538 -> 540 ;
541 [label="NumberOfTime30-59DaysPastDueNotWorse <= 0.0357\nentropy = 0.84049680905\nsamples = 401", shape="box"] ;
507 -> 541 ;
542 [label="age <= 0.5388\nentropy = 0.801629101586\nsamples = 250", shape="box"] ;
541 -> 542 ;
543 [label="NumberOfDependents <= 0.1250\nentropy = 0.829454318903\nsamples = 233", shape="box"] ;
542 -> 543 ;
544 [label="age <= 0.4126\nentropy = 0.800850500349\nsamples = 193", shape="box"] ;
543 -> 544 ;
545 [label="entropy = 0.6998\nsamples = 74\nvalue = [ 60.  14.]", shape="box"] ;
544 -> 545 ;
546 [label="NumberOfDependents <= 0.0750\nentropy = 0.851760831852\nsamples = 119", shape="box"] ;
544 -> 546 ;
547 [label="entropy = 0.8571\nsamples = 64\nvalue = [ 46.  18.]", shape="box"] ;
546 -> 547 ;
548 [label="entropy = 0.8454\nsamples = 55\nvalue = [ 40.  15.]", shape="box"] ;
546 -> 548 ;
549 [label="entropy = 0.9341\nsamples = 40\nvalue = [ 26.  14.]", shape="box"] ;
543 -> 549 ;
550 [label="entropy = 0.0000\nsamples = 17\nvalue = [ 17.   0.]", shape="box"] ;
542 -> 550 ;
551 [label="age <= 0.4223\nentropy = 0.894620588891\nsamples = 151", shape="box"] ;
541 -> 551 ;
552 [label="entropy = 0.9457\nsamples = 55\nvalue = [ 35.  20.]", shape="box"] ;
551 -> 552 ;
553 [label="entropy = 0.8571\nsamples = 96\nvalue = [ 69.  27.]", shape="box"] ;
551 -> 553 ;
554 [label="age <= 0.3447\nentropy = 0.657272978468\nsamples = 371", shape="box"] ;
414 -> 554 ;
555 [label="entropy = 0.8926\nsamples = 42\nvalue = [ 29.  13.]", shape="box"] ;
554 -> 555 ;
556 [label="NumberOfTime30-59DaysPastDueNotWorse <= 0.0255\nentropy = 0.61476245006\nsamples = 329", shape="box"] ;
554 -> 556 ;
557 [label="NumberOfDependents <= 0.2250\nentropy = 0.585463744768\nsamples = 299", shape="box"] ;
556 -> 557 ;
558 [label="NumberOfTime30-59DaysPastDueNotWorse <= 0.0153\nentropy = 0.619382194679\nsamples = 221", shape="box"] ;
557 -> 558 ;
559 [label="age <= 0.4806\nentropy = 0.597828220819\nsamples = 179", shape="box"] ;
558 -> 559 ;
560 [label="age <= 0.4612\nentropy = 0.630162887103\nsamples = 139", shape="box"] ;
559 -> 560 ;
561 [label="age <= 0.4417\nentropy = 0.578794624632\nsamples = 116", shape="box"] ;
560 -> 561 ;
562 [label="entropy = 0.6136\nsamples = 99\nvalue = [ 84.  15.]", shape="box"] ;
561 -> 562 ;
563 [label="entropy = 0.3228\nsamples = 17\nvalue = [ 16.   1.]", shape="box"] ;
561 -> 563 ;
564 [label="entropy = 0.8281\nsamples = 23\nvalue = [ 17.   6.]", shape="box"] ;
560 -> 564 ;
565 [label="entropy = 0.4690\nsamples = 40\nvalue = [ 36.   4.]", shape="box"] ;
559 -> 565 ;
566 [label="entropy = 0.7025\nsamples = 42\nvalue = [ 34.   8.]", shape="box"] ;
558 -> 566 ;
567 [label="entropy = 0.4771\nsamples = 78\nvalue = [ 70.   8.]", shape="box"] ;
557 -> 567 ;
568 [label="entropy = 0.8366\nsamples = 30\nvalue = [ 22.   8.]", shape="box"] ;
556 -> 568 ;
569 [label="entropy = 0.0000\nsamples = 39\nvalue = [ 39.   0.]", shape="box"] ;
175 -> 569 ;
570 [label="NumberOfDependents <= 0.2750\nentropy = 0.155909520136\nsamples = 25464", shape="box"] ;
2 -> 570 ;
571 [label="NumberOfDependents <= 0.1250\nentropy = 0.155744320248\nsamples = 25454", shape="box"] ;
570 -> 571 ;
572 [label="age <= 0.6165\nentropy = 0.154975772853\nsamples = 24946", shape="box"] ;
571 -> 572 ;
573 [label="age <= 0.5874\nentropy = 0.193963048346\nsamples = 9594", shape="box"] ;
572 -> 573 ;
574 [label="NumberOfTime30-59DaysPastDueNotWorse <= 0.0255\nentropy = 0.210349659622\nsamples = 4604", shape="box"] ;
573 -> 574 ;
575 [label="NumberOfDependents <= 0.0750\nentropy = 0.188550475493\nsamples = 4542", shape="box"] ;
574 -> 575 ;
576 [label="NumberOfTime30-59DaysPastDueNotWorse <= 0.0051\nentropy = 0.193255310192\nsamples = 4064", shape="box"] ;
575 -> 576 ;
577 [label="NumberOfDependents <= 0.0250\nentropy = 0.173007530608\nsamples = 3601", shape="box"] ;
576 -> 577 ;
578 [label="age <= 0.5777\nentropy = 0.178611238717\nsamples = 2602", shape="box"] ;
577 -> 578 ;
579 [label="age <= 0.5680\nentropy = 0.197658899176\nsamples = 1729", shape="box"] ;
578 -> 579 ;
580 [label="entropy = 0.2069\nsamples = 861\nvalue = [ 833.   28.]", shape="box"] ;
579 -> 580 ;
581 [label="entropy = 0.1883\nsamples = 868\nvalue = [ 843.   25.]", shape="box"] ;
579 -> 581 ;
582 [label="entropy = 0.1385\nsamples = 873\nvalue = [ 856.   17.]", shape="box"] ;
578 -> 582 ;
583 [label="age <= 0.5680\nentropy = 0.158093053527\nsamples = 999", shape="box"] ;
577 -> 583 ;
584 [label="entropy = 0.0692\nsamples = 362\nvalue = [ 359.    3.]", shape="box"] ;
583 -> 584 ;
585 [label="age <= 0.5777\nentropy = 0.201350939128\nsamples = 637", shape="box"] ;
583 -> 585 ;
586 [label="entropy = 0.2094\nsamples = 333\nvalue = [ 322.   11.]", shape="box"] ;
585 -> 586 ;
587 [label="entropy = 0.1924\nsamples = 304\nvalue = [ 295.    9.]", shape="box"] ;
585 -> 587 ;
588 [label="NumberOfTime30-59DaysPastDueNotWorse <= 0.0153\nentropy = 0.329328254129\nsamples = 463", shape="box"] ;
576 -> 588 ;
589 [label="age <= 0.5680\nentropy = 0.354718840899\nsamples = 373", shape="box"] ;
588 -> 589 ;
590 [label="NumberOfDependents <= 0.0250\nentropy = 0.25524211319\nsamples = 140", shape="box"] ;
589 -> 590 ;
591 [label="entropy = 0.1900\nsamples = 103\nvalue = [ 100.    3.]", shape="box"] ;
590 -> 591 ;
592 [label="entropy = 0.4060\nsamples = 37\nvalue = [ 34.   3.]", shape="box"] ;
590 -> 592 ;
593 [label="NumberOfDependents <= 0.0250\nentropy = 0.407600059481\nsamples = 233", shape="box"] ;
589 -> 593 ;
594 [label="age <= 0.5777\nentropy = 0.439496986922\nsamples = 176", shape="box"] ;
593 -> 594 ;
595 [label="entropy = 0.4430\nsamples = 87\nvalue = [ 79.   8.]", shape="box"] ;
594 -> 595 ;
596 [label="entropy = 0.4361\nsamples = 89\nvalue = [ 81.   8.]", shape="box"] ;
594 -> 596 ;
597 [label="entropy = 0.2975\nsamples = 57\nvalue = [ 54.   3.]", shape="box"] ;
593 -> 597 ;
598 [label="entropy = 0.2108\nsamples = 90\nvalue = [ 87.   3.]", shape="box"] ;
588 -> 598 ;
599 [label="age <= 0.5777\nentropy = 0.146578168412\nsamples = 478", shape="box"] ;
575 -> 599 ;
600 [label="NumberOfTime30-59DaysPastDueNotWorse <= 0.0051\nentropy = 0.110319147417\nsamples = 341", shape="box"] ;
599 -> 600 ;
601 [label="age <= 0.5680\nentropy = 0.104709404915\nsamples = 291", shape="box"] ;
600 -> 601 ;
602 [label="entropy = 0.1337\nsamples = 161\nvalue = [ 158.    3.]", shape="box"] ;
601 -> 602 ;
603 [label="entropy = 0.0651\nsamples = 130\nvalue = [ 129.    1.]", shape="box"] ;
601 -> 603 ;
604 [label="entropy = 0.1414\nsamples = 50\nvalue = [ 49.   1.]", shape="box"] ;
600 -> 604 ;
605 [label="NumberOfTime30-59DaysPastDueNotWorse <= 0.0051\nentropy = 0.225990738218\nsamples = 137", shape="box"] ;
599 -> 605 ;
606 [label="entropy = 0.1698\nsamples = 119\nvalue = [ 116.    3.]", shape="box"] ;
605 -> 606 ;
607 [label="entropy = 0.5033\nsamples = 18\nvalue = [ 16.   2.]", shape="box"] ;
605 -> 607 ;
608 [label="entropy = 0.9383\nsamples = 62\nvalue = [ 40.  22.]", shape="box"] ;
574 -> 608 ;
609 [label="NumberOfTime30-59DaysPastDueNotWorse <= 0.0051\nentropy = 0.178359191788\nsamples = 4990", shape="box"] ;
573 -> 609 ;
610 [label="NumberOfDependents <= 0.0750\nentropy = 0.135569996735\nsamples = 4430", shape="box"] ;
609 -> 610 ;
611 [label="NumberOfDependents <= 0.0250\nentropy = 0.139474554447\nsamples = 4122", shape="box"] ;
610 -> 611 ;
612 [label="age <= 0.6068\nentropy = 0.141368135262\nsamples = 3102", shape="box"] ;
611 -> 612 ;
613 [label="age <= 0.5971\nentropy = 0.146902736258\nsamples = 2002", shape="box"] ;
612 -> 613 ;
614 [label="entropy = 0.1322\nsamples = 980\nvalue = [ 962.   18.]", shape="box"] ;
613 -> 614 ;
615 [label="entropy = 0.1606\nsamples = 1022\nvalue = [ 998.   24.]", shape="box"] ;
613 -> 615 ;
616 [label="entropy = 0.1311\nsamples = 1100\nvalue = [ 1080.    20.]", shape="box"] ;
612 -> 616 ;
617 [label="age <= 0.6068\nentropy = 0.133663135045\nsamples = 1020", shape="box"] ;
611 -> 617 ;
618 [label="age <= 0.5971\nentropy = 0.119964124872\nsamples = 676", shape="box"] ;
617 -> 618 ;
619 [label="entropy = 0.1078\nsamples = 351\nvalue = [ 346.    5.]", shape="box"] ;
618 -> 619 ;
620 [label="entropy = 0.1327\nsamples = 325\nvalue = [ 319.    6.]", shape="box"] ;
618 -> 620 ;
621 [label="entropy = 0.1594\nsamples = 344\nvalue = [ 336.    8.]", shape="box"] ;
617 -> 621 ;
622 [label="age <= 0.5971\nentropy = 0.0790662666706\nsamples = 308", shape="box"] ;
610 -> 622 ;
623 [label="entropy = 0.0000\nsamples = 105\nvalue = [ 105.    0.]", shape="box"] ;
622 -> 623 ;
624 [label="age <= 0.6068\nentropy = 0.111020028234\nsamples = 203", shape="box"] ;
622 -> 624 ;
625 [label="entropy = 0.1215\nsamples = 121\nvalue = [ 119.    2.]", shape="box"] ;
624 -> 625 ;
626 [label="entropy = 0.0950\nsamples = 82\nvalue = [ 81.   1.]", shape="box"] ;
624 -> 626 ;
627 [label="age <= 0.5971\nentropy = 0.434081120004\nsamples = 560", shape="box"] ;
609 -> 627 ;
628 [label="NumberOfDependents <= 0.0250\nentropy = 0.470670562322\nsamples = 189", shape="box"] ;
627 -> 628 ;
629 [label="NumberOfTime30-59DaysPastDueNotWorse <= 0.0153\nentropy = 0.416013694072\nsamples = 131", shape="box"] ;
628 -> 629 ;
630 [label="entropy = 0.4489\nsamples = 96\nvalue = [ 87.   9.]", shape="box"] ;
629 -> 630 ;
631 [label="entropy = 0.3160\nsamples = 35\nvalue = [ 33.   2.]", shape="box"] ;
629 -> 631 ;
632 [label="entropy = 0.5788\nsamples = 58\nvalue = [ 50.   8.]", shape="box"] ;
628 -> 632 ;
633 [label="age <= 0.6068\nentropy = 0.414593425384\nsamples = 371", shape="box"] ;
627 -> 633 ;
634 [label="NumberOfTime30-59DaysPastDueNotWorse <= 0.0255\nentropy = 0.380946585705\nsamples = 189", shape="box"] ;
633 -> 634 ;
635 [label="NumberOfTime30-59DaysPastDueNotWorse <= 0.0153\nentropy = 0.322756958897\nsamples = 170", shape="box"] ;
634 -> 635 ;
636 [label="NumberOfDependents <= 0.0250\nentropy = 0.346012002891\nsamples = 139", shape="box"] ;
635 -> 636 ;
637 [label="entropy = 0.2975\nsamples = 95\nvalue = [ 90.   5.]", shape="box"] ;
636 -> 637 ;
638 [label="entropy = 0.4395\nsamples = 44\nvalue = [ 40.   4.]", shape="box"] ;
636 -> 638 ;
639 [label="entropy = 0.2056\nsamples = 31\nvalue = [ 30.   1.]", shape="box"] ;
635 -> 639 ;
640 [label="entropy = 0.7425\nsamples = 19\nvalue = [ 15.   4.]", shape="box"] ;
634 -> 640 ;
641 [label="NumberOfTime30-59DaysPastDueNotWorse <= 0.0255\nentropy = 0.447739510244\nsamples = 182", shape="box"] ;
633 -> 641 ;
642 [label="NumberOfDependents <= 0.0250\nentropy = 0.461216040514\nsamples = 164", shape="box"] ;
641 -> 642 ;
643 [label="NumberOfTime30-59DaysPastDueNotWorse <= 0.0153\nentropy = 0.431428208002\nsamples = 113", shape="box"] ;
642 -> 643 ;
644 [label="entropy = 0.3853\nsamples = 93\nvalue = [ 86.   7.]", shape="box"] ;
643 -> 644 ;
645 [label="entropy = 0.6098\nsamples = 20\nvalue = [ 17.   3.]", shape="box"] ;
643 -> 645 ;
646 [label="entropy = 0.5226\nsamples = 51\nvalue = [ 45.   6.]", shape="box"] ;
642 -> 646 ;
647 [label="entropy = 0.3095\nsamples = 18\nvalue = [ 17.   1.]", shape="box"] ;
641 -> 647 ;
648 [label="NumberOfDependents <= 0.0750\nentropy = 0.128803161747\nsamples = 15352", shape="box"] ;
572 -> 648 ;
649 [label="age <= 0.6553\nentropy = 0.128031063343\nsamples = 14958", shape="box"] ;
648 -> 649 ;
650 [label="NumberOfTime30-59DaysPastDueNotWorse <= 0.0051\nentropy = 0.148802535539\nsamples = 4643", shape="box"] ;
649 -> 650 ;
651 [label="age <= 0.6262\nentropy = 0.114233583299\nsamples = 4180", shape="box"] ;
650 -> 651 ;
652 [label="NumberOfDependents <= 0.0250\nentropy = 0.102296227472\nsamples = 1198", shape="box"] ;
651 -> 652 ;
653 [label="entropy = 0.1008\nsamples = 915\nvalue = [ 903.   12.]", shape="box"] ;
652 -> 653 ;
654 [label="entropy = 0.1071\nsamples = 283\nvalue = [ 279.    4.]", shape="box"] ;
652 -> 654 ;
655 [label="NumberOfDependents <= 0.0250\nentropy = 0.118923509829\nsamples = 2982", shape="box"] ;
651 -> 655 ;
656 [label="age <= 0.6456\nentropy = 0.118991073449\nsamples = 2297", shape="box"] ;
655 -> 656 ;
657 [label="age <= 0.6359\nentropy = 0.115330448023\nsamples = 1549", shape="box"] ;
656 -> 657 ;
658 [label="entropy = 0.1253\nsamples = 757\nvalue = [ 744.   13.]", shape="box"] ;
657 -> 658 ;
659 [label="entropy = 0.1056\nsamples = 792\nvalue = [ 781.   11.]", shape="box"] ;
657 -> 659 ;
660 [label="entropy = 0.1265\nsamples = 748\nvalue = [ 735.   13.]", shape="box"] ;
656 -> 660 ;
661 [label="age <= 0.6359\nentropy = 0.11869686351\nsamples = 685", shape="box"] ;
655 -> 661 ;
662 [label="entropy = 0.1410\nsamples = 251\nvalue = [ 246.    5.]", shape="box"] ;
661 -> 662 ;
663 [label="age <= 0.6456\nentropy = 0.105197211283\nsamples = 434", shape="box"] ;
661 -> 663 ;
664 [label="entropy = 0.0770\nsamples = 212\nvalue = [ 210.    2.]", shape="box"] ;
663 -> 664 ;
665 [label="entropy = 0.1302\nsamples = 222\nvalue = [ 218.    4.]", shape="box"] ;
663 -> 665 ;
666 [label="NumberOfTime30-59DaysPastDueNotWorse <= 0.0153\nentropy = 0.386460660209\nsamples = 463", shape="box"] ;
650 -> 666 ;
667 [label="age <= 0.6456\nentropy = 0.317323899836\nsamples = 348", shape="box"] ;
666 -> 667 ;
668 [label="NumberOfDependents <= 0.0250\nentropy = 0.249170593809\nsamples = 265", shape="box"] ;
667 -> 668 ;
669 [label="age <= 0.6359\nentropy = 0.226712155947\nsamples = 191", shape="box"] ;
668 -> 669 ;
670 [label="age <= 0.6262\nentropy = 0.272970857914\nsamples = 128", shape="box"] ;
669 -> 670 ;
671 [label="entropy = 0.2762\nsamples = 63\nvalue = [ 60.   3.]", shape="box"] ;
670 -> 671 ;
672 [label="entropy = 0.2698\nsamples = 65\nvalue = [ 62.   3.]", shape="box"] ;
670 -> 672 ;
673 [label="entropy = 0.1176\nsamples = 63\nvalue = [ 62.   1.]", shape="box"] ;
669 -> 673 ;
674 [label="entropy = 0.3034\nsamples = 74\nvalue = [ 70.   4.]", shape="box"] ;
668 -> 674 ;
675 [label="entropy = 0.4952\nsamples = 83\nvalue = [ 74.   9.]", shape="box"] ;
667 -> 675 ;
676 [label="NumberOfTime30-59DaysPastDueNotWorse <= 0.0255\nentropy = 0.558629373452\nsamples = 115", shape="box"] ;
666 -> 676 ;
677 [label="entropy = 0.5340\nsamples = 74\nvalue = [ 65.   9.]", shape="box"] ;
676 -> 677 ;
678 [label="entropy = 0.6006\nsamples = 41\nvalue = [ 35.   6.]", shape="box"] ;
676 -> 678 ;
679 [label="age <= 0.6942\nentropy = 0.118326966552\nsamples = 10315", shape="box"] ;
649 -> 679 ;
680 [label="age <= 0.6748\nentropy = 0.0979405827182\nsamples = 3397", shape="box"] ;
679 -> 680 ;
681 [label="age <= 0.6650\nentropy = 0.0897430274581\nsamples = 1847", shape="box"] ;
680 -> 681 ;
682 [label="NumberOfDependents <= 0.0250\nentropy = 0.109012473268\nsamples = 969", shape="box"] ;
681 -> 682 ;
683 [label="NumberOfTime30-59DaysPastDueNotWorse <= 0.0051\nentropy = 0.121915769661\nsamples = 783", shape="box"] ;
682 -> 683 ;
684 [label="entropy = 0.0800\nsamples = 708\nvalue = [ 701.    7.]", shape="box"] ;
683 -> 684 ;
685 [label="entropy = 0.4022\nsamples = 75\nvalue = [ 69.   6.]", shape="box"] ;
683 -> 685 ;
686 [label="NumberOfTime30-59DaysPastDueNotWorse <= 0.0051\nentropy = 0.0482686487665\nsamples = 186", shape="box"] ;
682 -> 686 ;
687 [label="entropy = 0.0518\nsamples = 171\nvalue = [ 170.    1.]", shape="box"] ;
686 -> 687 ;
688 [label="entropy = 0.0000\nsamples = 15\nvalue = [ 15.   0.]", shape="box"] ;
686 -> 688 ;
689 [label="NumberOfDependents <= 0.0250\nentropy = 0.0670313848383\nsamples = 878", shape="box"] ;
681 -> 689 ;
690 [label="NumberOfTime30-59DaysPastDueNotWorse <= 0.0051\nentropy = 0.0686636642719\nsamples = 731", shape="box"] ;
689 -> 690 ;
691 [label="entropy = 0.0415\nsamples = 667\nvalue = [ 664.    3.]", shape="box"] ;
690 -> 691 ;
692 [label="entropy = 0.2730\nsamples = 64\nvalue = [ 61.   3.]", shape="box"] ;
690 -> 692 ;
693 [label="NumberOfTime30-59DaysPastDueNotWorse <= 0.0051\nentropy = 0.0587581571052\nsamples = 147", shape="box"] ;
689 -> 693 ;
694 [label="entropy = 0.0000\nsamples = 125\nvalue = [ 125.    0.]", shape="box"] ;
693 -> 694 ;
695 [label="entropy = 0.2668\nsamples = 22\nvalue = [ 21.   1.]", shape="box"] ;
693 -> 695 ;
696 [label="NumberOfDependents <= 0.0250\nentropy = 0.10745976155\nsamples = 1550", shape="box"] ;
680 -> 696 ;
697 [label="age <= 0.6845\nentropy = 0.102614797424\nsamples = 1268", shape="box"] ;
696 -> 697 ;
698 [label="NumberOfTime30-59DaysPastDueNotWorse <= 0.0153\nentropy = 0.0970678971066\nsamples = 639", shape="box"] ;
697 -> 698 ;
699 [label="NumberOfTime30-59DaysPastDueNotWorse <= 0.0051\nentropy = 0.0987023113976\nsamples = 626", shape="box"] ;
698 -> 699 ;
700 [label="entropy = 0.0929\nsamples = 590\nvalue = [ 583.    7.]", shape="box"] ;
699 -> 700 ;
701 [label="entropy = 0.1831\nsamples = 36\nvalue = [ 35.   1.]", shape="box"] ;
699 -> 701 ;
702 [label="entropy = 0.0000\nsamples = 13\nvalue = [ 13.   0.]", shape="box"] ;
698 -> 702 ;
703 [label="NumberOfTime30-59DaysPastDueNotWorse <= 0.0051\nentropy = 0.108161904363\nsamples = 629", shape="box"] ;
697 -> 703 ;
704 [label="entropy = 0.0471\nsamples = 574\nvalue = [ 571.    3.]", shape="box"] ;
703 -> 704 ;
705 [label="entropy = 0.4972\nsamples = 55\nvalue = [ 49.   6.]", shape="box"] ;
703 -> 705 ;
706 [label="NumberOfTime30-59DaysPastDueNotWorse <= 0.0051\nentropy = 0.1285009252\nsamples = 282", shape="box"] ;
696 -> 706 ;
707 [label="age <= 0.6845\nentropy = 0.0922772477446\nsamples = 255", shape="box"] ;
706 -> 707 ;
708 [label="entropy = 0.1068\nsamples = 142\nvalue = [ 140.    2.]", shape="box"] ;
707 -> 708 ;
709 [label="entropy = 0.0731\nsamples = 113\nvalue = [ 112.    1.]", shape="box"] ;
707 -> 709 ;
710 [label="entropy = 0.3809\nsamples = 27\nvalue = [ 25.   2.]", shape="box"] ;
706 -> 710 ;
711 [label="age <= 0.7330\nentropy = 0.127948346149\nsamples = 6918", shape="box"] ;
679 -> 711 ;
712 [label="NumberOfDependents <= 0.0250\nentropy = 0.153195973013\nsamples = 2667", shape="box"] ;
711 -> 712 ;
713 [label="age <= 0.7039\nentropy = 0.151313593086\nsamples = 2204", shape="box"] ;
712 -> 713 ;
714 [label="NumberOfTime30-59DaysPastDueNotWorse <= 0.0153\nentropy = 0.194947886768\nsamples = 631", shape="box"] ;
713 -> 714 ;
715 [label="NumberOfTime30-59DaysPastDueNotWorse <= 0.0051\nentropy = 0.15629114167\nsamples = 617", shape="box"] ;
714 -> 715 ;
716 [label="entropy = 0.1648\nsamples = 577\nvalue = [ 563.   14.]", shape="box"] ;
715 -> 716 ;
717 [label="entropy = 0.0000\nsamples = 40\nvalue = [ 40.   0.]", shape="box"] ;
715 -> 717 ;
718 [label="entropy = 0.9403\nsamples = 14\nvalue = [ 9.  5.]", shape="box"] ;
714 -> 718 ;
719 [label="age <= 0.7136\nentropy = 0.132567345498\nsamples = 1573", shape="box"] ;
713 -> 719 ;
720 [label="NumberOfTime30-59DaysPastDueNotWorse <= 0.0051\nentropy = 0.108335837588\nsamples = 558", shape="box"] ;
719 -> 720 ;
721 [label="entropy = 0.0804\nsamples = 503\nvalue = [ 498.    5.]", shape="box"] ;
720 -> 721 ;
722 [label="entropy = 0.3054\nsamples = 55\nvalue = [ 52.   3.]", shape="box"] ;
720 -> 722 ;
723 [label="NumberOfTime30-59DaysPastDueNotWorse <= 0.0051\nentropy = 0.145295445382\nsamples = 1015", shape="box"] ;
719 -> 723 ;
724 [label="age <= 0.7233\nentropy = 0.0988733393059\nsamples = 937", shape="box"] ;
723 -> 724 ;
725 [label="entropy = 0.1278\nsamples = 511\nvalue = [ 502.    9.]", shape="box"] ;
724 -> 725 ;
726 [label="entropy = 0.0605\nsamples = 426\nvalue = [ 423.    3.]", shape="box"] ;
724 -> 726 ;
727 [label="entropy = 0.5159\nsamples = 78\nvalue = [ 69.   9.]", shape="box"] ;
723 -> 727 ;
728 [label="age <= 0.7233\nentropy = 0.16205058884\nsamples = 463", shape="box"] ;
712 -> 728 ;
729 [label="NumberOfTime30-59DaysPastDueNotWorse <= 0.0051\nentropy = 0.11989294672\nsamples = 369", shape="box"] ;
728 -> 729 ;
730 [label="age <= 0.7136\nentropy = 0.108776865358\nsamples = 347", shape="box"] ;
729 -> 730 ;
731 [label="age <= 0.7039\nentropy = 0.0950172456711\nsamples = 246", shape="box"] ;
730 -> 731 ;
732 [label="entropy = 0.1126\nsamples = 133\nvalue = [ 131.    2.]", shape="box"] ;
731 -> 732 ;
733 [label="entropy = 0.0731\nsamples = 113\nvalue = [ 112.    1.]", shape="box"] ;
731 -> 733 ;
734 [label="entropy = 0.1403\nsamples = 101\nvalue = [ 99.   2.]", shape="box"] ;
730 -> 734 ;
735 [label="entropy = 0.2668\nsamples = 22\nvalue = [ 21.   1.]", shape="box"] ;
729 -> 735 ;
736 [label="entropy = 0.2998\nsamples = 94\nvalue = [ 89.   5.]", shape="box"] ;
728 -> 736 ;
737 [label="age <= 0.8495\nentropy = 0.111272702292\nsamples = 4251", shape="box"] ;
711 -> 737 ;
738 [label="NumberOfTime30-59DaysPastDueNotWorse <= 0.0051\nentropy = 0.117022649931\nsamples = 3803", shape="box"] ;
737 -> 738 ;
739 [label="age <= 0.7718\nentropy = 0.0893306833481\nsamples = 3538", shape="box"] ;
738 -> 739 ;
740 [label="NumberOfDependents <= 0.0250\nentropy = 0.0579927200329\nsamples = 1792", shape="box"] ;
739 -> 740 ;
741 [label="age <= 0.7427\nentropy = 0.0626478908244\nsamples = 1497", shape="box"] ;
740 -> 741 ;
742 [label="entropy = 0.0450\nsamples = 404\nvalue = [ 402.    2.]", shape="box"] ;
741 -> 742 ;
743 [label="age <= 0.7524\nentropy = 0.0688454021947\nsamples = 1093", shape="box"] ;
741 -> 743 ;
744 [label="entropy = 0.0966\nsamples = 402\nvalue = [ 397.    5.]", shape="box"] ;
743 -> 744 ;
745 [label="age <= 0.7621\nentropy = 0.0513519721422\nsamples = 691", shape="box"] ;
743 -> 745 ;
746 [label="entropy = 0.0510\nsamples = 348\nvalue = [ 346.    2.]", shape="box"] ;
745 -> 746 ;
747 [label="entropy = 0.0517\nsamples = 343\nvalue = [ 341.    2.]", shape="box"] ;
745 -> 747 ;
748 [label="age <= 0.7621\nentropy = 0.0326942988869\nsamples = 295", shape="box"] ;
740 -> 748 ;
749 [label="entropy = 0.0000\nsamples = 229\nvalue = [ 229.    0.]", shape="box"] ;
748 -> 749 ;
750 [label="entropy = 0.1133\nsamples = 66\nvalue = [ 65.   1.]", shape="box"] ;
748 -> 750 ;
751 [label="NumberOfDependents <= 0.0250\nentropy = 0.118567774023\nsamples = 1746", shape="box"] ;
739 -> 751 ;
752 [label="age <= 0.8398\nentropy = 0.117594665659\nsamples = 1512", shape="box"] ;
751 -> 752 ;
753 [label="age <= 0.8301\nentropy = 0.11216702547\nsamples = 1403", shape="box"] ;
752 -> 753 ;
754 [label="age <= 0.7913\nentropy = 0.120832406479\nsamples = 1279", shape="box"] ;
753 -> 754 ;
755 [label="age <= 0.7816\nentropy = 0.0976537523784\nsamples = 555", shape="box"] ;
754 -> 755 ;
756 [label="entropy = 0.1062\nsamples = 286\nvalue = [ 282.    4.]", shape="box"] ;
755 -> 756 ;
757 [label="entropy = 0.0883\nsamples = 269\nvalue = [ 266.    3.]", shape="box"] ;
755 -> 757 ;
758 [label="age <= 0.8010\nentropy = 0.137701728068\nsamples = 724", shape="box"] ;
754 -> 758 ;
759 [label="entropy = 0.1670\nsamples = 243\nvalue = [ 237.    6.]", shape="box"] ;
758 -> 759 ;
760 [label="age <= 0.8107\nentropy = 0.122087710403\nsamples = 481", shape="box"] ;
758 -> 760 ;
761 [label="entropy = 0.1005\nsamples = 153\nvalue = [ 151.    2.]", shape="box"] ;
760 -> 761 ;
762 [label="age <= 0.8204\nentropy = 0.131744048041\nsamples = 328", shape="box"] ;
760 -> 762 ;
763 [label="entropy = 0.1371\nsamples = 156\nvalue = [ 153.    3.]", shape="box"] ;
762 -> 763 ;
764 [label="entropy = 0.1268\nsamples = 172\nvalue = [ 169.    3.]", shape="box"] ;
762 -> 764 ;
765 [label="entropy = 0.0000\nsamples = 124\nvalue = [ 124.    0.]", shape="box"] ;
753 -> 765 ;
766 [label="entropy = 0.1818\nsamples = 109\nvalue = [ 106.    3.]", shape="box"] ;
752 -> 766 ;
767 [label="age <= 0.8204\nentropy = 0.124797575493\nsamples = 234", shape="box"] ;
751 -> 767 ;
768 [label="age <= 0.8107\nentropy = 0.160823020822\nsamples = 170", shape="box"] ;
767 -> 768 ;
769 [label="age <= 0.7816\nentropy = 0.138513793031\nsamples = 154", shape="box"] ;
768 -> 769 ;
770 [label="entropy = 0.2423\nsamples = 50\nvalue = [ 48.   2.]", shape="box"] ;
769 -> 770 ;
771 [label="age <= 0.7913\nentropy = 0.0782324652577\nsamples = 104", shape="box"] ;
769 -> 771 ;
772 [label="entropy = 0.0000\nsamples = 45\nvalue = [ 45.   0.]", shape="box"] ;
771 -> 772 ;
773 [label="entropy = 0.1239\nsamples = 59\nvalue = [ 58.   1.]", shape="box"] ;
771 -> 773 ;
774 [label="entropy = 0.3373\nsamples = 16\nvalue = [ 15.   1.]", shape="box"] ;
768 -> 774 ;
775 [label="entropy = 0.0000\nsamples = 64\nvalue = [ 64.   0.]", shape="box"] ;
767 -> 775 ;
776 [label="NumberOfDependents <= 0.0250\nentropy = 0.38601890057\nsamples = 265", shape="box"] ;
738 -> 776 ;
777 [label="age <= 0.7718\nentropy = 0.383912244951\nsamples = 227", shape="box"] ;
776 -> 777 ;
778 [label="age <= 0.7524\nentropy = 0.468995593589\nsamples = 100", shape="box"] ;
777 -> 778 ;
779 [label="entropy = 0.4567\nsamples = 52\nvalue = [ 47.   5.]", shape="box"] ;
778 -> 779 ;
780 [label="entropy = 0.4821\nsamples = 48\nvalue = [ 43.   5.]", shape="box"] ;
778 -> 780 ;
781 [label="NumberOfTime30-59DaysPastDueNotWorse <= 0.0153\nentropy = 0.307752750336\nsamples = 127", shape="box"] ;
777 -> 781 ;
782 [label="age <= 0.8204\nentropy = 0.242292189082\nsamples = 100", shape="box"] ;
781 -> 782 ;
783 [label="entropy = 0.1068\nsamples = 71\nvalue = [ 70.   1.]", shape="box"] ;
782 -> 783 ;
784 [label="entropy = 0.4798\nsamples = 29\nvalue = [ 26.   3.]", shape="box"] ;
782 -> 784 ;
785 [label="entropy = 0.5033\nsamples = 27\nvalue = [ 24.   3.]", shape="box"] ;
781 -> 785 ;
786 [label="entropy = 0.3985\nsamples = 38\nvalue = [ 35.   3.]", shape="box"] ;
776 -> 786 ;
787 [label="age <= 0.8981\nentropy = 0.0579927200329\nsamples = 448", shape="box"] ;
737 -> 787 ;
788 [label="NumberOfTime30-59DaysPastDueNotWorse <= 0.0051\nentropy = 0.0267049707026\nsamples = 374", shape="box"] ;
787 -> 788 ;
789 [label="age <= 0.8592\nentropy = 0.0286117527742\nsamples = 345", shape="box"] ;
788 -> 789 ;
790 [label="entropy = 0.0828\nsamples = 97\nvalue = [ 96.   1.]", shape="box"] ;
789 -> 790 ;
791 [label="entropy = 0.0000\nsamples = 248\nvalue = [ 248.    0.]", shape="box"] ;
789 -> 791 ;
792 [label="entropy = 0.0000\nsamples = 29\nvalue = [ 29.   0.]", shape="box"] ;
788 -> 792 ;
793 [label="entropy = 0.1793\nsamples = 74\nvalue = [ 72.   2.]", shape="box"] ;
787 -> 793 ;
794 [label="NumberOfTime30-59DaysPastDueNotWorse <= 0.0153\nentropy = 0.157116642522\nsamples = 394", shape="box"] ;
648 -> 794 ;
795 [label="age <= 0.7136\nentropy = 0.131378924271\nsamples = 384", shape="box"] ;
794 -> 795 ;
796 [label="NumberOfTime30-59DaysPastDueNotWorse <= 0.0051\nentropy = 0.151468740685\nsamples = 321", shape="box"] ;
795 -> 796 ;
797 [label="age <= 0.6553\nentropy = 0.14450614339\nsamples = 292", shape="box"] ;
796 -> 797 ;
798 [label="age <= 0.6262\nentropy = 0.0888796956846\nsamples = 178", shape="box"] ;
797 -> 798 ;
799 [label="entropy = 0.1893\nsamples = 69\nvalue = [ 67.   2.]", shape="box"] ;
798 -> 799 ;
800 [label="entropy = 0.0000\nsamples = 109\nvalue = [ 109.    0.]", shape="box"] ;
798 -> 800 ;
801 [label="age <= 0.7039\nentropy = 0.219297308132\nsamples = 114", shape="box"] ;
797 -> 801 ;
802 [label="age <= 0.6942\nentropy = 0.191433254814\nsamples = 102", shape="box"] ;
801 -> 802 ;
803 [label="entropy = 0.2127\nsamples = 89\nvalue = [ 86.   3.]", shape="box"] ;
802 -> 803 ;
804 [label="entropy = 0.0000\nsamples = 13\nvalue = [ 13.   0.]", shape="box"] ;
802 -> 804 ;
805 [label="entropy = 0.4138\nsamples = 12\nvalue = [ 11.   1.]", shape="box"] ;
801 -> 805 ;
806 [label="entropy = 0.2164\nsamples = 29\nvalue = [ 28.   1.]", shape="box"] ;
796 -> 806 ;
807 [label="entropy = 0.0000\nsamples = 63\nvalue = [ 63.   0.]", shape="box"] ;
795 -> 807 ;
808 [label="entropy = 0.7219\nsamples = 10\nvalue = [ 8.  2.]", shape="box"] ;
794 -> 808 ;
809 [label="age <= 0.6748\nentropy = 0.192017028763\nsamples = 508", shape="box"] ;
571 -> 809 ;
810 [label="NumberOfDependents <= 0.1750\nentropy = 0.200622324313\nsamples = 480", shape="box"] ;
809 -> 810 ;
811 [label="NumberOfTime30-59DaysPastDueNotWorse <= 0.0051\nentropy = 0.223694215554\nsamples = 361", shape="box"] ;
810 -> 811 ;
812 [label="age <= 0.5680\nentropy = 0.136059286239\nsamples = 315", shape="box"] ;
811 -> 812 ;
813 [label="entropy = 0.0000\nsamples = 56\nvalue = [ 56.   0.]", shape="box"] ;
812 -> 813 ;
814 [label="age <= 0.6553\nentropy = 0.158865625903\nsamples = 259", shape="box"] ;
812 -> 814 ;
815 [label="age <= 0.6068\nentropy = 0.143726169939\nsamples = 245", shape="box"] ;
814 -> 815 ;
816 [label="age <= 0.5874\nentropy = 0.173781322679\nsamples = 154", shape="box"] ;
815 -> 816 ;
817 [label="entropy = 0.0889\nsamples = 89\nvalue = [ 88.   1.]", shape="box"] ;
816 -> 817 ;
818 [label="entropy = 0.2698\nsamples = 65\nvalue = [ 62.   3.]", shape="box"] ;
816 -> 818 ;
819 [label="entropy = 0.0873\nsamples = 91\nvalue = [ 90.   1.]", shape="box"] ;
815 -> 819 ;
820 [label="entropy = 0.3712\nsamples = 14\nvalue = [ 13.   1.]", shape="box"] ;
814 -> 820 ;
821 [label="entropy = 0.6153\nsamples = 46\nvalue = [ 39.   7.]", shape="box"] ;
811 -> 821 ;
822 [label="age <= 0.5971\nentropy = 0.12311463565\nsamples = 119", shape="box"] ;
810 -> 822 ;
823 [label="entropy = 0.0000\nsamples = 72\nvalue = [ 72.   0.]", shape="box"] ;
822 -> 823 ;
824 [label="entropy = 0.2539\nsamples = 47\nvalue = [ 45.   2.]", shape="box"] ;
822 -> 824 ;
825 [label="entropy = 0.0000\nsamples = 28\nvalue = [ 28.   0.]", shape="box"] ;
809 -> 825 ;
826 [label="entropy = 0.4690\nsamples = 10\nvalue = [ 9.  1.]", shape="box"] ;
570 -> 826 ;
827 [label="NumberOfTime30-59DaysPastDueNotWorse <= 0.0051\nentropy = 0.808603940063\nsamples = 2678", shape="box"] ;
1 -> 827 ;
828 [label="NumberOfTime60-89DaysPastDueNotWorse <= 0.0153\nentropy = 0.690218849452\nsamples = 1332", shape="box"] ;
827 -> 828 ;
829 [label="age <= 0.5291\nentropy = 0.664298389165\nsamples = 1203", shape="box"] ;
828 -> 829 ;
830 [label="NumberOfDependents <= 0.0250\nentropy = 0.69851542936\nsamples = 859", shape="box"] ;
829 -> 830 ;
831 [label="age <= 0.4806\nentropy = 0.738713793317\nsamples = 374", shape="box"] ;
830 -> 831 ;
832 [label="age <= 0.2670\nentropy = 0.689201985117\nsamples = 304", shape="box"] ;
831 -> 832 ;
833 [label="entropy = 0.8384\nsamples = 56\nvalue = [ 41.  15.]", shape="box"] ;
832 -> 833 ;
834 [label="age <= 0.3932\nentropy = 0.646892147517\nsamples = 248", shape="box"] ;
832 -> 834 ;
835 [label="age <= 0.3738\nentropy = 0.593976092669\nsamples = 160", shape="box"] ;
834 -> 835 ;
836 [label="age <= 0.3544\nentropy = 0.616748259826\nsamples = 144", shape="box"] ;
835 -> 836 ;
837 [label="age <= 0.3252\nentropy = 0.575669337037\nsamples = 117", shape="box"] ;
836 -> 837 ;
838 [label="entropy = 0.6262\nsamples = 83\nvalue = [ 70.  13.]", shape="box"] ;
837 -> 838 ;
839 [label="entropy = 0.4306\nsamples = 34\nvalue = [ 31.   3.]", shape="box"] ;
837 -> 839 ;
840 [label="entropy = 0.7642\nsamples = 27\nvalue = [ 21.   6.]", shape="box"] ;
836 -> 840 ;
841 [label="entropy = 0.3373\nsamples = 16\nvalue = [ 15.   1.]", shape="box"] ;
835 -> 841 ;
842 [label="entropy = 0.7309\nsamples = 88\nvalue = [ 70.  18.]", shape="box"] ;
834 -> 842 ;
843 [label="entropy = 0.8981\nsamples = 70\nvalue = [ 48.  22.]", shape="box"] ;
831 -> 843 ;
844 [label="NumberOfDependents <= 0.1250\nentropy = 0.664963632906\nsamples = 485", shape="box"] ;
830 -> 844 ;
845 [label="age <= 0.3058\nentropy = 0.635145860461\nsamples = 343", shape="box"] ;
844 -> 845 ;
846 [label="entropy = 0.8113\nsamples = 48\nvalue = [ 36.  12.]", shape="box"] ;
845 -> 846 ;
847 [label="NumberOfDependents <= 0.0750\nentropy = 0.59913410976\nsamples = 295", shape="box"] ;
845 -> 847 ;
848 [label="age <= 0.3350\nentropy = 0.639006001033\nsamples = 142", shape="box"] ;
847 -> 848 ;
849 [label="entropy = 0.0000\nsamples = 12\nvalue = [ 12.   0.]", shape="box"] ;
848 -> 849 ;
850 [label="age <= 0.3738\nentropy = 0.673299408919\nsamples = 130", shape="box"] ;
848 -> 850 ;
851 [label="entropy = 0.8631\nsamples = 21\nvalue = [ 15.   6.]", shape="box"] ;
850 -> 851 ;
852 [label="age <= 0.4078\nentropy = 0.624564432497\nsamples = 109", shape="box"] ;
850 -> 852 ;
853 [label="entropy = 0.0000\nsamples = 20\nvalue = [ 20.   0.]", shape="box"] ;
852 -> 853 ;
854 [label="entropy = 0.7036\nsamples = 89\nvalue = [ 72.  17.]", shape="box"] ;
852 -> 854 ;
855 [label="age <= 0.3544\nentropy = 0.559406628187\nsamples = 153", shape="box"] ;
847 -> 855 ;
856 [label="entropy = 0.7355\nsamples = 29\nvalue = [ 23.   6.]", shape="box"] ;
855 -> 856 ;
857 [label="age <= 0.4029\nentropy = 0.508611331383\nsamples = 124", shape="box"] ;
855 -> 857 ;
858 [label="entropy = 0.0000\nsamples = 36\nvalue = [ 36.   0.]", shape="box"] ;
857 -> 858 ;
859 [label="entropy = 0.6321\nsamples = 88\nvalue = [ 74.  14.]", shape="box"] ;
857 -> 859 ;
860 [label="age <= 0.4126\nentropy = 0.730298727874\nsamples = 142", shape="box"] ;
844 -> 860 ;
861 [label="entropy = 0.8791\nsamples = 57\nvalue = [ 40.  17.]", shape="box"] ;
860 -> 861 ;
862 [label="entropy = 0.5873\nsamples = 85\nvalue = [ 73.  12.]", shape="box"] ;
860 -> 862 ;
863 [label="NumberOfDependents <= 0.0250\nentropy = 0.567555251573\nsamples = 344", shape="box"] ;
829 -> 863 ;
864 [label="age <= 0.5680\nentropy = 0.593276075415\nsamples = 230", shape="box"] ;
863 -> 864 ;
865 [label="entropy = 0.4395\nsamples = 55\nvalue = [ 50.   5.]", shape="box"] ;
864 -> 865 ;
866 [label="age <= 0.6845\nentropy = 0.634309554641\nsamples = 175", shape="box"] ;
864 -> 866 ;
867 [label="age <= 0.6650\nentropy = 0.700749549716\nsamples = 116", shape="box"] ;
866 -> 867 ;
868 [label="age <= 0.6165\nentropy = 0.672294817076\nsamples = 102", shape="box"] ;
867 -> 868 ;
869 [label="entropy = 0.7281\nsamples = 64\nvalue = [ 51.  13.]", shape="box"] ;
868 -> 869 ;
870 [label="entropy = 0.5618\nsamples = 38\nvalue = [ 33.   5.]", shape="box"] ;
868 -> 870 ;
871 [label="entropy = 0.8631\nsamples = 14\nvalue = [ 10.   4.]", shape="box"] ;
867 -> 871 ;
872 [label="entropy = 0.4743\nsamples = 59\nvalue = [ 53.   6.]", shape="box"] ;
866 -> 872 ;
873 [label="NumberOfDependents <= 0.1250\nentropy = 0.511968294044\nsamples = 114", shape="box"] ;
863 -> 873 ;
874 [label="NumberOfDependents <= 0.0750\nentropy = 0.522559374537\nsamples = 102", shape="box"] ;
873 -> 874 ;
875 [label="entropy = 0.5159\nsamples = 78\nvalue = [ 69.   9.]", shape="box"] ;
874 -> 875 ;
876 [label="entropy = 0.5436\nsamples = 24\nvalue = [ 21.   3.]", shape="box"] ;
874 -> 876 ;
877 [label="entropy = 0.4138\nsamples = 12\nvalue = [ 11.   1.]", shape="box"] ;
873 -> 877 ;
878 [label="NumberOfTime60-89DaysPastDueNotWorse <= 0.0255\nentropy = 0.874556264966\nsamples = 129", shape="box"] ;
828 -> 878 ;
879 [label="age <= 0.2961\nentropy = 0.861262188472\nsamples = 102", shape="box"] ;
878 -> 879 ;
880 [label="entropy = 1.0000\nsamples = 20\nvalue = [ 10.  10.]", shape="box"] ;
879 -> 880 ;
881 [label="entropy = 0.7810\nsamples = 82\nvalue = [ 63.  19.]", shape="box"] ;
879 -> 881 ;
882 [label="entropy = 0.9183\nsamples = 27\nvalue = [ 18.   9.]", shape="box"] ;
878 -> 882 ;
883 [label="NumberOfTime30-59DaysPastDueNotWorse <= 0.0357\nentropy = 0.894660049175\nsamples = 1346", shape="box"] ;
827 -> 883 ;
884 [label="NumberOfDependents <= 0.1250\nentropy = 0.870050811669\nsamples = 1182", shape="box"] ;
883 -> 884 ;
885 [label="age <= 0.3252\nentropy = 0.878674493217\nsamples = 1034", shape="box"] ;
884 -> 885 ;
886 [label="NumberOfTime60-89DaysPastDueNotWorse <= 0.0153\nentropy = 0.982581468767\nsamples = 187", shape="box"] ;
885 -> 886 ;
887 [label="NumberOfTime30-59DaysPastDueNotWorse <= 0.0255\nentropy = 0.944591181932\nsamples = 138", shape="box"] ;
886 -> 887 ;
888 [label="NumberOfTime30-59DaysPastDueNotWorse <= 0.0153\nentropy = 0.921003875079\nsamples = 122", shape="box"] ;
887 -> 888 ;
889 [label="entropy = 0.8984\nsamples = 89\nvalue = [ 61.  28.]", shape="box"] ;
888 -> 889 ;
890 [label="entropy = 0.9673\nsamples = 33\nvalue = [ 20.  13.]", shape="box"] ;
888 -> 890 ;
891 [label="entropy = 0.9887\nsamples = 16\nvalue = [ 7.  9.]", shape="box"] ;
887 -> 891 ;
892 [label="entropy = 0.9755\nsamples = 49\nvalue = [ 20.  29.]", shape="box"] ;
886 -> 892 ;
893 [label="NumberOfTime60-89DaysPastDueNotWorse <= 0.0153\nentropy = 0.841989329676\nsamples = 847", shape="box"] ;
885 -> 893 ;
894 [label="NumberOfDependents <= 0.0250\nentropy = 0.812405064681\nsamples = 702", shape="box"] ;
893 -> 894 ;
895 [label="NumberOfTime30-59DaysPastDueNotWorse <= 0.0255\nentropy = 0.793977200113\nsamples = 376", shape="box"] ;
894 -> 895 ;
896 [label="NumberOfTime30-59DaysPastDueNotWorse <= 0.0153\nentropy = 0.793813865743\nsamples = 326", shape="box"] ;
895 -> 896 ;
897 [label="age <= 0.7330\nentropy = 0.793901359125\nsamples = 234", shape="box"] ;
896 -> 897 ;
898 [label="age <= 0.6845\nentropy = 0.811278124459\nsamples = 224", shape="box"] ;
897 -> 898 ;
899 [label="age <= 0.4223\nentropy = 0.792231558456\nsamples = 214", shape="box"] ;
898 -> 899 ;
900 [label="entropy = 0.9436\nsamples = 36\nvalue = [ 23.  13.]", shape="box"] ;
899 -> 900 ;
901 [label="age <= 0.4417\nentropy = 0.74808810578\nsamples = 178", shape="box"] ;
899 -> 901 ;
902 [label="entropy = 0.5665\nsamples = 15\nvalue = [ 13.   2.]", shape="box"] ;
901 -> 902 ;
903 [label="age <= 0.5485\nentropy = 0.761732723115\nsamples = 163", shape="box"] ;
901 -> 903 ;
904 [label="entropy = 0.8066\nsamples = 85\nvalue = [ 64.  21.]", shape="box"] ;
903 -> 904 ;
905 [label="entropy = 0.7063\nsamples = 78\nvalue = [ 63.  15.]", shape="box"] ;
903 -> 905 ;
906 [label="entropy = 1.0000\nsamples = 10\nvalue = [ 5.  5.]", shape="box"] ;
898 -> 906 ;
907 [label="entropy = 0.0000\nsamples = 10\nvalue = [ 10.   0.]", shape="box"] ;
897 -> 907 ;
908 [label="entropy = 0.7936\nsamples = 92\nvalue = [ 70.  22.]", shape="box"] ;
896 -> 908 ;
909 [label="entropy = 0.7950\nsamples = 50\nvalue = [ 38.  12.]", shape="box"] ;
895 -> 909 ;
910 [label="NumberOfDependents <= 0.0750\nentropy = 0.83243210561\nsamples = 326", shape="box"] ;
894 -> 910 ;
911 [label="age <= 0.3932\nentropy = 0.849751137253\nsamples = 174", shape="box"] ;
910 -> 911 ;
912 [label="entropy = 0.6769\nsamples = 28\nvalue = [ 23.   5.]", shape="box"] ;
911 -> 912 ;
913 [label="age <= 0.4320\nentropy = 0.874489361948\nsamples = 146", shape="box"] ;
911 -> 913 ;
914 [label="entropy = 0.9887\nsamples = 16\nvalue = [ 9.  7.]", shape="box"] ;
913 -> 914 ;
915 [label="NumberOfTime30-59DaysPastDueNotWorse <= 0.0255\nentropy = 0.851224335262\nsamples = 130", shape="box"] ;
913 -> 915 ;
916 [label="age <= 0.5777\nentropy = 0.788068992506\nsamples = 106", shape="box"] ;
915 -> 916 ;
917 [label="entropy = 0.7219\nsamples = 80\nvalue = [ 64.  16.]", shape="box"] ;
916 -> 917 ;
918 [label="entropy = 0.9306\nsamples = 26\nvalue = [ 17.   9.]", shape="box"] ;
916 -> 918 ;
919 [label="entropy = 0.9950\nsamples = 24\nvalue = [ 13.  11.]", shape="box"] ;
915 -> 919 ;
920 [label="age <= 0.4515\nentropy = 0.811278124459\nsamples = 152", shape="box"] ;
910 -> 920 ;
921 [label="entropy = 0.6447\nsamples = 73\nvalue = [ 61.  12.]", shape="box"] ;
920 -> 921 ;
922 [label="entropy = 0.9140\nsamples = 79\nvalue = [ 53.  26.]", shape="box"] ;
920 -> 922 ;
923 [label="NumberOfTime30-59DaysPastDueNotWorse <= 0.0153\nentropy = 0.947167820711\nsamples = 145", shape="box"] ;
893 -> 923 ;
924 [label="entropy = 0.9869\nsamples = 67\nvalue = [ 38.  29.]", shape="box"] ;
923 -> 924 ;
925 [label="entropy = 0.8905\nsamples = 78\nvalue = [ 54.  24.]", shape="box"] ;
923 -> 925 ;
926 [label="NumberOfTime30-59DaysPastDueNotWorse <= 0.0255\nentropy = 0.800392208045\nsamples = 148", shape="box"] ;
884 -> 926 ;
927 [label="NumberOfTime60-89DaysPastDueNotWorse <= 0.0153\nentropy = 0.731655776608\nsamples = 122", shape="box"] ;
926 -> 927 ;
928 [label="NumberOfDependents <= 0.2250\nentropy = 0.676162741883\nsamples = 101", shape="box"] ;
927 -> 928 ;
929 [label="entropy = 0.6991\nsamples = 90\nvalue = [ 73.  17.]", shape="box"] ;
928 -> 929 ;
930 [label="entropy = 0.4395\nsamples = 11\nvalue = [ 10.   1.]", shape="box"] ;
928 -> 930 ;
931 [label="entropy = 0.9183\nsamples = 21\nvalue = [ 14.   7.]", shape="box"] ;
927 -> 931 ;
932 [label="entropy = 0.9829\nsamples = 26\nvalue = [ 15.  11.]", shape="box"] ;
926 -> 932 ;
933 [label="NumberOfDependents <= 0.1250\nentropy = 0.994736900086\nsamples = 164", shape="box"] ;
883 -> 933 ;
934 [label="NumberOfTime30-59DaysPastDueNotWorse <= 0.0663\nentropy = 0.988864204347\nsamples = 137", shape="box"] ;
933 -> 934 ;
935 [label="NumberOfTime30-59DaysPastDueNotWorse <= 0.0561\nentropy = 0.994223030576\nsamples = 123", shape="box"] ;
934 -> 935 ;
936 [label="NumberOfDependents <= 0.0250\nentropy = 0.992068624845\nsamples = 105", shape="box"] ;
935 -> 936 ;
937 [label="entropy = 0.9784\nsamples = 58\nvalue = [ 34.  24.]", shape="box"] ;
936 -> 937 ;
938 [label="entropy = 0.9997\nsamples = 47\nvalue = [ 24.  23.]", shape="box"] ;
936 -> 938 ;
939 [label="entropy = 1.0000\nsamples = 18\nvalue = [ 9.  9.]", shape="box"] ;
935 -> 939 ;
940 [label="entropy = 0.8631\nsamples = 14\nvalue = [ 10.   4.]", shape="box"] ;
934 -> 940 ;
941 [label="entropy = 0.9911\nsamples = 27\nvalue = [ 12.  15.]", shape="box"] ;
933 -> 941 ;
942 [label="age <= 0.5097\nentropy = 0.976126712342\nsamples = 4542", shape="box"] ;
0 -> 942 ;
943 [label="NumberOfTime30-59DaysPastDueNotWorse <= 0.0051\nentropy = 0.987878394944\nsamples = 3175", shape="box"] ;
942 -> 943 ;
944 [label="NumberOfTimes90DaysLate <= 0.0255\nentropy = 0.940285958671\nsamples = 1470", shape="box"] ;
943 -> 944 ;
945 [label="age <= 0.2767\nentropy = 0.897778063473\nsamples = 1261", shape="box"] ;
944 -> 945 ;
946 [label="NumberOfTimes90DaysLate <= 0.0153\nentropy = 0.977728774116\nsamples = 194", shape="box"] ;
945 -> 946 ;
947 [label="NumberOfTime60-89DaysPastDueNotWorse <= 0.0051\nentropy = 0.948922498625\nsamples = 155", shape="box"] ;
946 -> 947 ;
948 [label="NumberOfDependents <= 0.0250\nentropy = 0.901598235406\nsamples = 126", shape="box"] ;
947 -> 948 ;
949 [label="age <= 0.2282\nentropy = 0.9081783473\nsamples = 102", shape="box"] ;
948 -> 949 ;
950 [label="entropy = 1.0000\nsamples = 12\nvalue = [ 6.  6.]", shape="box"] ;
949 -> 950 ;
951 [label="entropy = 0.8813\nsamples = 90\nvalue = [ 63.  27.]", shape="box"] ;
949 -> 951 ;
952 [label="entropy = 0.8709\nsamples = 24\nvalue = [ 17.   7.]", shape="box"] ;
948 -> 952 ;
953 [label="entropy = 0.9784\nsamples = 29\nvalue = [ 12.  17.]", shape="box"] ;
947 -> 953 ;
954 [label="entropy = 0.9766\nsamples = 39\nvalue = [ 16.  23.]", shape="box"] ;
946 -> 954 ;
955 [label="age <= 0.3932\nentropy = 0.876542953179\nsamples = 1067", shape="box"] ;
945 -> 955 ;
956 [label="NumberOfDependents <= 0.1250\nentropy = 0.854420416577\nsamples = 530", shape="box"] ;
955 -> 956 ;
957 [label="NumberOfTime60-89DaysPastDueNotWorse <= 0.0051\nentropy = 0.825749787651\nsamples = 455", shape="box"] ;
956 -> 957 ;
958 [label="age <= 0.3447\nentropy = 0.789871608795\nsamples = 363", shape="box"] ;
957 -> 958 ;
959 [label="NumberOfDependents <= 0.0250\nentropy = 0.847861745166\nsamples = 204", shape="box"] ;
958 -> 959 ;
960 [label="age <= 0.2864\nentropy = 0.874643448443\nsamples = 112", shape="box"] ;
959 -> 960 ;
961 [label="entropy = 0.9183\nsamples = 21\nvalue = [ 14.   7.]", shape="box"] ;
960 -> 961 ;
962 [label="entropy = 0.8631\nsamples = 91\nvalue = [ 65.  26.]", shape="box"] ;
960 -> 962 ;
963 [label="entropy = 0.8113\nsamples = 92\nvalue = [ 69.  23.]", shape="box"] ;
959 -> 963 ;
964 [label="NumberOfTimes90DaysLate <= 0.0153\nentropy = 0.698700352656\nsamples = 159", shape="box"] ;
958 -> 964 ;
965 [label="NumberOfDependents <= 0.0250\nentropy = 0.65296813886\nsamples = 131", shape="box"] ;
964 -> 965 ;
966 [label="entropy = 0.5499\nsamples = 55\nvalue = [ 48.   7.]", shape="box"] ;
965 -> 966 ;
967 [label="entropy = 0.7166\nsamples = 76\nvalue = [ 61.  15.]", shape="box"] ;
965 -> 967 ;
968 [label="entropy = 0.8631\nsamples = 28\nvalue = [ 20.   8.]", shape="box"] ;
964 -> 968 ;
969 [label="entropy = 0.9321\nsamples = 92\nvalue = [ 60.  32.]", shape="box"] ;
957 -> 969 ;
970 [label="entropy = 0.9710\nsamples = 75\nvalue = [ 45.  30.]", shape="box"] ;
956 -> 970 ;
971 [label="age <= 0.4126\nentropy = 0.896434996304\nsamples = 537", shape="box"] ;
955 -> 971 ;
972 [label="entropy = 0.9383\nsamples = 93\nvalue = [ 60.  33.]", shape="box"] ;
971 -> 972 ;
973 [label="age <= 0.4320\nentropy = 0.886190232962\nsamples = 444", shape="box"] ;
971 -> 973 ;
974 [label="entropy = 0.8072\nsamples = 97\nvalue = [ 73.  24.]", shape="box"] ;
973 -> 974 ;
975 [label="age <= 0.4417\nentropy = 0.904256057724\nsamples = 347", shape="box"] ;
973 -> 975 ;
976 [label="entropy = 0.9852\nsamples = 35\nvalue = [ 20.  15.]", shape="box"] ;
975 -> 976 ;
977 [label="NumberOfDependents <= 0.1250\nentropy = 0.890491640219\nsamples = 312", shape="box"] ;
975 -> 977 ;
978 [label="age <= 0.4612\nentropy = 0.906079131918\nsamples = 255", shape="box"] ;
977 -> 978 ;
979 [label="entropy = 0.8419\nsamples = 74\nvalue = [ 54.  20.]", shape="box"] ;
978 -> 979 ;
980 [label="NumberOfDependents <= 0.0750\nentropy = 0.927229947428\nsamples = 181", shape="box"] ;
978 -> 980 ;
981 [label="NumberOfTime60-89DaysPastDueNotWorse <= 0.0051\nentropy = 0.897588750772\nsamples = 137", shape="box"] ;
980 -> 981 ;
982 [label="age <= 0.4806\nentropy = 0.854466918485\nsamples = 111", shape="box"] ;
981 -> 982 ;
983 [label="entropy = 0.9090\nsamples = 37\nvalue = [ 25.  12.]", shape="box"] ;
982 -> 983 ;
984 [label="entropy = 0.8218\nsamples = 74\nvalue = [ 55.  19.]", shape="box"] ;
982 -> 984 ;
985 [label="entropy = 0.9957\nsamples = 26\nvalue = [ 14.  12.]", shape="box"] ;
981 -> 985 ;
986 [label="entropy = 0.9865\nsamples = 44\nvalue = [ 25.  19.]", shape="box"] ;
980 -> 986 ;
987 [label="entropy = 0.8043\nsamples = 57\nvalue = [ 43.  14.]", shape="box"] ;
977 -> 987 ;
988 [label="NumberOfDependents <= 0.0750\nentropy = 0.959978445284\nsamples = 209", shape="box"] ;
944 -> 988 ;
989 [label="NumberOfTime60-89DaysPastDueNotWorse <= 0.0051\nentropy = 0.936667381878\nsamples = 136", shape="box"] ;
988 -> 989 ;
990 [label="entropy = 0.9697\nsamples = 98\nvalue = [ 39.  59.]", shape="box"] ;
989 -> 990 ;
991 [label="entropy = 0.7897\nsamples = 38\nvalue = [  9.  29.]", shape="box"] ;
989 -> 991 ;
992 [label="entropy = 0.9890\nsamples = 73\nvalue = [ 32.  41.]", shape="box"] ;
988 -> 992 ;
993 [label="NumberOfTimes90DaysLate <= 0.0153\nentropy = 0.999979900613\nsamples = 1705", shape="box"] ;
943 -> 993 ;
994 [label="NumberOfTime30-59DaysPastDueNotWorse <= 0.0255\nentropy = 0.987372671989\nsamples = 984", shape="box"] ;
993 -> 994 ;
995 [label="NumberOfTime60-89DaysPastDueNotWorse <= 0.0153\nentropy = 0.970950594455\nsamples = 770", shape="box"] ;
994 -> 995 ;
996 [label="NumberOfTime30-59DaysPastDueNotWorse <= 0.0153\nentropy = 0.953226004765\nsamples = 691", shape="box"] ;
995 -> 996 ;
997 [label="age <= 0.2476\nentropy = 0.934352155739\nsamples = 471", shape="box"] ;
996 -> 997 ;
998 [label="entropy = 0.9799\nsamples = 12\nvalue = [ 5.  7.]", shape="box"] ;
997 -> 998 ;
999 [label="age <= 0.4515\nentropy = 0.928805940545\nsamples = 459", shape="box"] ;
997 -> 999 ;
1000 [label="NumberOfDependents <= 0.0250\nentropy = 0.94100053347\nsamples = 338", shape="box"] ;
999 -> 1000 ;
1001 [label="NumberOfTime60-89DaysPastDueNotWorse <= 0.0051\nentropy = 0.839530498105\nsamples = 134", shape="box"] ;
1000 -> 1001 ;
1002 [label="age <= 0.4126\nentropy = 0.836640741941\nsamples = 105", shape="box"] ;
1001 -> 1002 ;
1003 [label="entropy = 0.7936\nsamples = 92\nvalue = [ 70.  22.]", shape="box"] ;
1002 -> 1003 ;
1004 [label="entropy = 0.9957\nsamples = 13\nvalue = [ 7.  6.]", shape="box"] ;
1002 -> 1004 ;
1005 [label="entropy = 0.8498\nsamples = 29\nvalue = [ 21.   8.]", shape="box"] ;
1001 -> 1005 ;
